<?xml version="1.0"?>
<opencv_storage>
<cascade>
  <stageType>BOOST</stageType>
  <featureType>HAAR</featureType>
  <height>24</height>
  <width>24</width>
  <stageParams>
    <boostType>GAB</boostType>
    <minHitRate>9.9500000476837158e-01</minHitRate>
    <maxFalseAlarm>5.0000000000000000e-01</maxFalseAlarm>
    <weightTrimRate>9.4999998807907104e-01</weightTrimRate>
    <maxDepth>1</maxDepth>
    <maxWeakCount>100</maxWeakCount></stageParams>
  <featureParams>
    <maxCatCount>0</maxCatCount>
    <featSize>1</featSize>
    <mode>BASIC</mode></featureParams>
  <stageNum>15</stageNum>
  <stages>
    <!-- stage 0 -->
    <_>
      <maxWeakCount>17</maxWeakCount>
      <stageThreshold>-6.6479778289794922e-01</stageThreshold>
      <weakClassifiers>
        <_>
          <internalNodes>
            0 -1 6 -7.8725785017013550e-02</internalNodes>
          <leafValues>
            -1.2068965286016464e-01 7.5906574726104736e-01</leafValues></_>
        <_>
          <internalNodes>
            0 -1 21 1.0295432992279530e-02</internalNodes>
          <leafValues>
            -2.4399273097515106e-01 5.8585685491561890e-01</leafValues></_>
        <_>
          <internalNodes>
            0 -1 82 8.3942987024784088e-02</internalNodes>
          <leafValues>
            -2.3393777012825012e-01 6.2400609254837036e-01</leafValues></_>
        <_>
          <internalNodes>
            0 -1 45 -5.5403985083103180e-02</internalNodes>
          <leafValues>
            -4.8537915945053101e-01 2.6721203327178955e-01</leafValues></_>
        <_>
          <internalNodes>
            0 -1 116 -1.2704922817647457e-02</internalNodes>
          <leafValues>
            6.4440894126892090e-01 -1.9351236522197723e-01</leafValues></_>
        <_>
          <internalNodes>
            0 -1 213 1.0672208853065968e-02</internalNodes>
          <leafValues>
            -2.1755360066890717e-01 5.4427266120910645e-01</leafValues></_>
        <_>
          <internalNodes>
            0 -1 117 3.5482399165630341e-02</internalNodes>
          <leafValues>
            -1.6708198189735413e-01 7.3854702711105347e-01</leafValues></_>
        <_>
          <internalNodes>
            0 -1 179 1.2873936444520950e-02</internalNodes>
          <leafValues>
            -1.5311406552791595e-01 6.0792171955108643e-01</leafValues></_>
        <_>
          <internalNodes>
            0 -1 170 9.9284499883651733e-03</internalNodes>
          <leafValues>
            -2.2559981048107147e-01 5.1573449373245239e-01</leafValues></_>
        <_>
          <internalNodes>
            0 -1 14 6.9388654083013535e-03</internalNodes>
          <leafValues>
            -2.3292613029479980e-01 4.4722217321395874e-01</leafValues></_>
        <_>
          <internalNodes>
            0 -1 237 -1.3612987473607063e-02</internalNodes>
          <leafValues>
            6.4321118593215942e-01 -1.5166389942169189e-01</leafValues></_>
        <_>
          <internalNodes>
            0 -1 221 -1.1674515902996063e-02</internalNodes>
          <leafValues>
            7.2170239686965942e-01 -1.2537972629070282e-01</leafValues></_>
        <_>
          <internalNodes>
            0 -1 220 5.3971735760569572e-03</internalNodes>
          <leafValues>
            -2.3688308894634247e-01 4.2526018619537354e-01</leafValues></_>
        <_>
          <internalNodes>
            0 -1 156 -2.5057716295123100e-02</internalNodes>
          <leafValues>
            6.5401208400726318e-01 -1.5041291713714600e-01</leafValues></_>
        <_>
          <internalNodes>
            0 -1 147 1.3959905132651329e-02</internalNodes>
          <leafValues>
            -1.4573435485363007e-01 6.8007230758666992e-01</leafValues></_>
        <_>
          <internalNodes>
            0 -1 54 3.8296920247375965e-03</internalNodes>
          <leafValues>
            -1.8970610201358795e-01 5.0343406200408936e-01</leafValues></_>
        <_>
          <internalNodes>
            0 -1 133 -3.1182358507066965e-03</internalNodes>
          <leafValues>
            4.9453076720237732e-01 -1.7925339937210083e-01</leafValues></_></weakClassifiers></_>
    <!-- stage 1 -->
    <_>
      <maxWeakCount>19</maxWeakCount>
      <stageThreshold>-5.6587463617324829e-01</stageThreshold>
      <weakClassifiers>
        <_>
          <internalNodes>
            0 -1 165 -9.5176517963409424e-02</internalNodes>
          <leafValues>
            8.3840137720108032e-01 2.7669903635978699e-01</leafValues></_>
        <_>
          <internalNodes>
            0 -1 263 -4.9656291957944632e-04</internalNodes>
          <leafValues>
            5.5813831090927124e-01 -2.0027332007884979e-01</leafValues></_>
        <_>
          <internalNodes>
            0 -1 111 -1.0009704530239105e-01</internalNodes>
          <leafValues>
            8.0035674571990967e-01 -1.2132520228624344e-01</leafValues></_>
        <_>
          <internalNodes>
            0 -1 161 -3.4096226096153259e-02</internalNodes>
          <leafValues>
            6.2113714218139648e-01 -2.2280374169349670e-01</leafValues></_>
        <_>
          <internalNodes>
            0 -1 219 3.1321200076490641e-03</internalNodes>
          <leafValues>
            -1.6008231043815613e-01 6.5588146448135376e-01</leafValues></_>
        <_>
          <internalNodes>
            0 -1 145 -1.8729321658611298e-02</internalNodes>
          <leafValues>
            5.3852295875549316e-01 -2.0633397996425629e-01</leafValues></_>
        <_>
          <internalNodes>
            0 -1 95 1.3325309380888939e-02</internalNodes>
          <leafValues>
            -2.2907148301601410e-01 5.3080517053604126e-01</leafValues></_>
        <_>
          <internalNodes>
            0 -1 240 -3.6562927998602390e-03</internalNodes>
          <leafValues>
            4.5035776495933533e-01 -2.5523877143859863e-01</leafValues></_>
        <_>
          <internalNodes>
            0 -1 124 2.3814961314201355e-02</internalNodes>
          <leafValues>
            -2.4868477880954742e-01 4.8591122031211853e-01</leafValues></_>
        <_>
          <internalNodes>
            0 -1 218 1.6408802475780249e-03</internalNodes>
          <leafValues>
            -2.6287382841110229e-01 4.7989410161972046e-01</leafValues></_>
        <_>
          <internalNodes>
            0 -1 25 3.6268329713493586e-03</internalNodes>
          <leafValues>
            -2.1463584899902344e-01 4.7778517007827759e-01</leafValues></_>
        <_>
          <internalNodes>
            0 -1 106 8.6333230137825012e-03</internalNodes>
          <leafValues>
            -1.9848667085170746e-01 5.2389109134674072e-01</leafValues></_>
        <_>
          <internalNodes>
            0 -1 199 2.0931150764226913e-02</internalNodes>
          <leafValues>
            -9.5645844936370850e-02 9.3083363771438599e-01</leafValues></_>
        <_>
          <internalNodes>
            0 -1 162 1.1983363656327128e-03</internalNodes>
          <leafValues>
            -1.4283640682697296e-01 6.0581809282302856e-01</leafValues></_>
        <_>
          <internalNodes>
            0 -1 214 2.4212875869125128e-03</internalNodes>
          <leafValues>
            -1.0730908066034317e-01 8.3142638206481934e-01</leafValues></_>
        <_>
          <internalNodes>
            0 -1 242 1.2068073556292802e-04</internalNodes>
          <leafValues>
            -2.6170265674591064e-01 3.9455980062484741e-01</leafValues></_>
        <_>
          <internalNodes>
            0 -1 51 2.5477249175310135e-02</internalNodes>
          <leafValues>
            -2.1256521344184875e-01 5.0164097547531128e-01</leafValues></_>
        <_>
          <internalNodes>
            0 -1 74 -1.9477124442346394e-04</internalNodes>
          <leafValues>
            3.4018984436988831e-01 -2.9144546389579773e-01</leafValues></_>
        <_>
          <internalNodes>
            0 -1 210 -2.9581433627754450e-03</internalNodes>
          <leafValues>
            5.9019494056701660e-01 -1.6316495835781097e-01</leafValues></_></weakClassifiers></_>
    <!-- stage 2 -->
    <_>
      <maxWeakCount>17</maxWeakCount>
      <stageThreshold>-6.9385462999343872e-01</stageThreshold>
      <weakClassifiers>
        <_>
          <internalNodes>
            0 -1 266 2.8968032449483871e-02</internalNodes>
          <leafValues>
            6.7878460884094238e-01 -4.3939393758773804e-01</leafValues></_>
        <_>
          <internalNodes>
            0 -1 100 9.8557416349649429e-03</internalNodes>
          <leafValues>
            -2.6665952801704407e-01 5.1655989885330200e-01</leafValues></_>
        <_>
          <internalNodes>
            0 -1 141 8.6037181317806244e-03</internalNodes>
          <leafValues>
            -3.6331030726432800e-01 4.1142547130584717e-01</leafValues></_>
        <_>
          <internalNodes>
            0 -1 23 9.9087141454219818e-02</internalNodes>
          <leafValues>
            -2.5023260712623596e-01 5.1679259538650513e-01</leafValues></_>
        <_>
          <internalNodes>
            0 -1 129 -4.0506958961486816e-02</internalNodes>
          <leafValues>
            5.5780303478240967e-01 -2.5193914771080017e-01</leafValues></_>
        <_>
          <internalNodes>
            0 -1 87 -2.0876944065093994e-02</internalNodes>
          <leafValues>
            7.2851228713989258e-01 -1.6073876619338989e-01</leafValues></_>
        <_>
          <internalNodes>
            0 -1 207 4.0440261363983154e-03</internalNodes>
          <leafValues>
            -1.5246863663196564e-01 6.1668145656585693e-01</leafValues></_>
        <_>
          <internalNodes>
            0 -1 126 5.9270118363201618e-03</internalNodes>
          <leafValues>
            -1.0559280961751938e-01 8.4362685680389404e-01</leafValues></_>
        <_>
          <internalNodes>
            0 -1 151 -6.4861751161515713e-03</internalNodes>
          <leafValues>
            -6.1283159255981445e-01 1.8313470482826233e-01</leafValues></_>
        <_>
          <internalNodes>
            0 -1 29 2.0314105786383152e-03</internalNodes>
          <leafValues>
            -2.7918705344200134e-01 3.9830747246742249e-01</leafValues></_>
        <_>
          <internalNodes>
            0 -1 260 4.3867727072210982e-05</internalNodes>
          <leafValues>
            -2.5661289691925049e-01 4.1918191313743591e-01</leafValues></_>
        <_>
          <internalNodes>
            0 -1 34 -7.6017697574570775e-04</internalNodes>
          <leafValues>
            -3.1213241815567017e-01 3.3106225728988647e-01</leafValues></_>
        <_>
          <internalNodes>
            0 -1 180 1.1170800775289536e-02</internalNodes>
          <leafValues>
            -1.1121982336044312e-01 8.9004808664321899e-01</leafValues></_>
        <_>
          <internalNodes>
            0 -1 89 1.5097620780579746e-04</internalNodes>
          <leafValues>
            2.6264753937721252e-01 -3.8276040554046631e-01</leafValues></_>
        <_>
          <internalNodes>
            0 -1 88 7.9298494383692741e-03</internalNodes>
          <leafValues>
            -1.4198122918605804e-01 7.6498371362686157e-01</leafValues></_>
        <_>
          <internalNodes>
            0 -1 181 -6.3679702579975128e-02</internalNodes>
          <leafValues>
            6.4347231388092041e-01 -1.9392235577106476e-01</leafValues></_>
        <_>
          <internalNodes>
            0 -1 60 -7.8074097633361816e-02</internalNodes>
          <leafValues>
            9.9383449554443359e-01 -9.0401664376258850e-02</leafValues></_></weakClassifiers></_>
    <!-- stage 3 -->
    <_>
      <maxWeakCount>11</maxWeakCount>
      <stageThreshold>-7.0362889766693115e-01</stageThreshold>
      <weakClassifiers>
        <_>
          <internalNodes>
            0 -1 81 -1.6267453134059906e-01</internalNodes>
          <leafValues>
            -3.2682925462722778e-01 7.1186441183090210e-01</leafValues></_>
        <_>
          <internalNodes>
            0 -1 97 -1.1168643832206726e-01</internalNodes>
          <leafValues>
            7.8819543123245239e-01 -1.3507457077503204e-01</leafValues></_>
        <_>
          <internalNodes>
            0 -1 253 3.7023485638201237e-03</internalNodes>
          <leafValues>
            -1.5994401276111603e-01 6.3115918636322021e-01</leafValues></_>
        <_>
          <internalNodes>
            0 -1 92 -3.1764097511768341e-02</internalNodes>
          <leafValues>
            5.1144355535507202e-01 -2.8574740886688232e-01</leafValues></_>
        <_>
          <internalNodes>
            0 -1 94 7.4937083991244435e-04</internalNodes>
          <leafValues>
            -3.3411312103271484e-01 4.2858359217643738e-01</leafValues></_>
        <_>
          <internalNodes>
            0 -1 52 3.6655843257904053e-02</internalNodes>
          <leafValues>
            -2.7545836567878723e-01 5.9103858470916748e-01</leafValues></_>
        <_>
          <internalNodes>
            0 -1 159 -3.5589488106779754e-04</internalNodes>
          <leafValues>
            6.2096786499023438e-01 -1.8143594264984131e-01</leafValues></_>
        <_>
          <internalNodes>
            0 -1 86 -2.8058860450983047e-02</internalNodes>
          <leafValues>
            7.0478498935699463e-01 -1.8418811261653900e-01</leafValues></_>
        <_>
          <internalNodes>
            0 -1 146 2.3302342742681503e-03</internalNodes>
          <leafValues>
            -1.7750203609466553e-01 5.8918046951293945e-01</leafValues></_>
        <_>
          <internalNodes>
            0 -1 99 5.0169695168733597e-04</internalNodes>
          <leafValues>
            -2.3294927179813385e-01 4.5697757601737976e-01</leafValues></_>
        <_>
          <internalNodes>
            0 -1 233 -1.2072070501744747e-02</internalNodes>
          <leafValues>
            4.5204859972000122e-01 -2.4627141654491425e-01</leafValues></_></weakClassifiers></_>
    <!-- stage 4 -->
    <_>
      <maxWeakCount>15</maxWeakCount>
      <stageThreshold>-6.9549244642257690e-01</stageThreshold>
      <weakClassifiers>
        <_>
          <internalNodes>
            0 -1 122 7.2598919272422791e-02</internalNodes>
          <leafValues>
            2.8903654217720032e-01 8.6940300464630127e-01</leafValues></_>
        <_>
          <internalNodes>
            0 -1 158 -1.2964867055416107e-02</internalNodes>
          <leafValues>
            8.2376360893249512e-01 -2.3420497775077820e-02</leafValues></_>
        <_>
          <internalNodes>
            0 -1 224 -1.8736869096755981e-03</internalNodes>
          <leafValues>
            6.7687952518463135e-01 -1.5559852123260498e-01</leafValues></_>
        <_>
          <internalNodes>
            0 -1 68 2.6386676356196404e-02</internalNodes>
          <leafValues>
            -1.8242731690406799e-01 6.7023229598999023e-01</leafValues></_>
        <_>
          <internalNodes>
            0 -1 107 3.7694759666919708e-02</internalNodes>
          <leafValues>
            -1.6495987772941589e-01 7.7856659889221191e-01</leafValues></_>
        <_>
          <internalNodes>
            0 -1 189 -4.2828852310776711e-03</internalNodes>
          <leafValues>
            7.8895777463912964e-01 -1.7499856650829315e-01</leafValues></_>
        <_>
          <internalNodes>
            0 -1 80 -1.3537958264350891e-02</internalNodes>
          <leafValues>
            -5.9233307838439941e-01 2.4388693273067474e-01</leafValues></_>
        <_>
          <internalNodes>
            0 -1 211 -1.6422901302576065e-02</internalNodes>
          <leafValues>
            6.9108945131301880e-01 -1.8865853548049927e-01</leafValues></_>
        <_>
          <internalNodes>
            0 -1 33 3.7059350870549679e-03</internalNodes>
          <leafValues>
            -2.1816302835941315e-01 5.1846176385879517e-01</leafValues></_>
        <_>
          <internalNodes>
            0 -1 201 -9.5115549629554152e-04</internalNodes>
          <leafValues>
            6.3542801141738892e-01 -1.7787179350852966e-01</leafValues></_>
        <_>
          <internalNodes>
            0 -1 61 -8.5815624333918095e-04</internalNodes>
          <leafValues>
            -4.1008552908897400e-01 2.6375111937522888e-01</leafValues></_>
        <_>
          <internalNodes>
            0 -1 118 -8.8461544364690781e-03</internalNodes>
          <leafValues>
            8.7639135122299194e-01 -1.3347348570823669e-01</leafValues></_>
        <_>
          <internalNodes>
            0 -1 150 1.8263635865878314e-04</internalNodes>
          <leafValues>
            -1.7930746078491211e-01 5.2667248249053955e-01</leafValues></_>
        <_>
          <internalNodes>
            0 -1 152 -2.4414047598838806e-02</internalNodes>
          <leafValues>
            7.6962131261825562e-01 -1.5724298357963562e-01</leafValues></_>
        <_>
          <internalNodes>
            0 -1 85 -8.2050219178199768e-02</internalNodes>
          <leafValues>
            7.3853278160095215e-01 -1.1680896580219269e-01</leafValues></_></weakClassifiers></_>
    <!-- stage 5 -->
    <_>
      <maxWeakCount>13</maxWeakCount>
      <stageThreshold>-6.3439643383026123e-01</stageThreshold>
      <weakClassifiers>
        <_>
          <internalNodes>
            0 -1 44 -2.3688552901148796e-02</internalNodes>
          <leafValues>
            -5.1851850748062134e-01 7.0435744524002075e-01</leafValues></_>
        <_>
          <internalNodes>
            0 -1 78 9.0980283915996552e-02</internalNodes>
          <leafValues>
            2.9880869388580322e-01 -7.0029419660568237e-01</leafValues></_>
        <_>
          <internalNodes>
            0 -1 11 2.8268038295209408e-04</internalNodes>
          <leafValues>
            -3.0493837594985962e-01 4.3613293766975403e-01</leafValues></_>
        <_>
          <internalNodes>
            0 -1 66 4.8871442675590515e-02</internalNodes>
          <leafValues>
            -1.9569472968578339e-01 6.7916458845138550e-01</leafValues></_>
        <_>
          <internalNodes>
            0 -1 223 -1.3849480077624321e-02</internalNodes>
          <leafValues>
            5.9383046627044678e-01 -2.1422897279262543e-01</leafValues></_>
        <_>
          <internalNodes>
            0 -1 183 1.3360115699470043e-03</internalNodes>
          <leafValues>
            -2.5361207127571106e-01 5.0143146514892578e-01</leafValues></_>
        <_>
          <internalNodes>
            0 -1 77 -3.2852556556463242e-02</internalNodes>
          <leafValues>
            -6.8819999694824219e-01 1.8667769432067871e-01</leafValues></_>
        <_>
          <internalNodes>
            0 -1 75 1.0023942450061440e-03</internalNodes>
          <leafValues>
            -3.7116515636444092e-01 2.9005762934684753e-01</leafValues></_>
        <_>
          <internalNodes>
            0 -1 203 9.2103367205709219e-04</internalNodes>
          <leafValues>
            -2.2259312868118286e-01 4.5845478773117065e-01</leafValues></_>
        <_>
          <internalNodes>
            0 -1 108 5.1607876084744930e-03</internalNodes>
          <leafValues>
            -1.9378197193145752e-01 6.0733759403228760e-01</leafValues></_>
        <_>
          <internalNodes>
            0 -1 30 -1.3744279276579618e-03</internalNodes>
          <leafValues>
            -4.3479213118553162e-01 2.6780614256858826e-01</leafValues></_>
        <_>
          <internalNodes>
            0 -1 197 -4.6661831438541412e-03</internalNodes>
          <leafValues>
            5.0589627027511597e-01 -2.5814336538314819e-01</leafValues></_>
        <_>
          <internalNodes>
            0 -1 188 -5.9780078008770943e-03</internalNodes>
          <leafValues>
            5.3392875194549561e-01 -2.4028946459293365e-01</leafValues></_></weakClassifiers></_>
    <!-- stage 6 -->
    <_>
      <maxWeakCount>20</maxWeakCount>
      <stageThreshold>-4.7911080718040466e-01</stageThreshold>
      <weakClassifiers>
        <_>
          <internalNodes>
            0 -1 47 8.9863389730453491e-03</internalNodes>
          <leafValues>
            2.5597268342971802e-01 7.5089991092681885e-01</leafValues></_>
        <_>
          <internalNodes>
            0 -1 262 -3.4893627162091434e-04</internalNodes>
          <leafValues>
            4.5089498162269592e-01 -1.7026236653327942e-01</leafValues></_>
        <_>
          <internalNodes>
            0 -1 269 -2.6487803552299738e-03</internalNodes>
          <leafValues>
            5.3969871997833252e-01 -1.5959325432777405e-01</leafValues></_>
        <_>
          <internalNodes>
            0 -1 172 -4.2068097740411758e-02</internalNodes>
          <leafValues>
            4.5933866500854492e-01 -1.5471407771110535e-01</leafValues></_>
        <_>
          <internalNodes>
            0 -1 53 1.0210869833827019e-02</internalNodes>
          <leafValues>
            -1.9096164405345917e-01 4.3323364853858948e-01</leafValues></_>
        <_>
          <internalNodes>
            0 -1 4 3.6253680009394884e-03</internalNodes>
          <leafValues>
            -2.2022049129009247e-01 3.7514185905456543e-01</leafValues></_>
        <_>
          <internalNodes>
            0 -1 235 -4.6519964933395386e-02</internalNodes>
          <leafValues>
            3.7874814867973328e-01 -1.9708622992038727e-01</leafValues></_>
        <_>
          <internalNodes>
            0 -1 43 7.1337826550006866e-02</internalNodes>
          <leafValues>
            1.0384721308946609e-01 -8.2147771120071411e-01</leafValues></_>
        <_>
          <internalNodes>
            0 -1 143 4.9758213572204113e-04</internalNodes>
          <leafValues>
            -2.7678760886192322e-01 2.9096013307571411e-01</leafValues></_>
        <_>
          <internalNodes>
            0 -1 120 5.3528945893049240e-02</internalNodes>
          <leafValues>
            1.2007717043161392e-01 -5.6865841150283813e-01</leafValues></_>
        <_>
          <internalNodes>
            0 -1 35 -1.9680052995681763e-02</internalNodes>
          <leafValues>
            3.4024381637573242e-01 -2.0064339041709900e-01</leafValues></_>
        <_>
          <internalNodes>
            0 -1 168 -7.0794373750686646e-03</internalNodes>
          <leafValues>
            5.0456821918487549e-01 -1.4009812474250793e-01</leafValues></_>
        <_>
          <internalNodes>
            0 -1 93 3.7199421058176085e-05</internalNodes>
          <leafValues>
            -2.6115036010742188e-01 2.7946329116821289e-01</leafValues></_>
        <_>
          <internalNodes>
            0 -1 136 -7.4904151260852814e-02</internalNodes>
          <leafValues>
            9.1008484363555908e-01 -8.2873299717903137e-02</leafValues></_>
        <_>
          <internalNodes>
            0 -1 19 1.9460956100374460e-03</internalNodes>
          <leafValues>
            1.0848271846771240e-01 -8.1262588500976563e-01</leafValues></_>
        <_>
          <internalNodes>
            0 -1 239 1.7120998818427324e-03</internalNodes>
          <leafValues>
            -1.7827183008193970e-01 3.8777226209640503e-01</leafValues></_>
        <_>
          <internalNodes>
            0 -1 164 -7.9674617154523730e-04</internalNodes>
          <leafValues>
            -2.1296328306198120e-01 3.2714265584945679e-01</leafValues></_>
        <_>
          <internalNodes>
            0 -1 46 -6.9275461137294769e-03</internalNodes>
          <leafValues>
            -8.0318325757980347e-01 8.6754828691482544e-02</leafValues></_>
        <_>
          <internalNodes>
            0 -1 5 -3.4016538411378860e-03</internalNodes>
          <leafValues>
            -4.0418916940689087e-01 1.4729169011116028e-01</leafValues></_>
        <_>
          <internalNodes>
            0 -1 195 4.5476838946342468e-02</internalNodes>
          <leafValues>
            -1.2481210380792618e-01 5.6798714399337769e-01</leafValues></_></weakClassifiers></_>
    <!-- stage 7 -->
    <_>
      <maxWeakCount>25</maxWeakCount>
      <stageThreshold>-6.3876503705978394e-01</stageThreshold>
      <weakClassifiers>
        <_>
          <internalNodes>
            0 -1 8 1.0533425956964493e-01</internalNodes>
          <leafValues>
            6.9999998807907104e-01 -1.8139535188674927e-01</leafValues></_>
        <_>
          <internalNodes>
            0 -1 255 -1.4198269695043564e-02</internalNodes>
          <leafValues>
            5.0619369745254517e-01 -1.4275473356246948e-01</leafValues></_>
        <_>
          <internalNodes>
            0 -1 148 -1.1701877415180206e-01</internalNodes>
          <leafValues>
            4.2282566428184509e-01 -2.3498740792274475e-01</leafValues></_>
        <_>
          <internalNodes>
            0 -1 142 2.8517299797385931e-03</internalNodes>
          <leafValues>
            -1.7591407895088196e-01 5.1816350221633911e-01</leafValues></_>
        <_>
          <internalNodes>
            0 -1 38 6.9426167756319046e-03</internalNodes>
          <leafValues>
            -1.4454838633537292e-01 6.8636351823806763e-01</leafValues></_>
        <_>
          <internalNodes>
            0 -1 137 -1.8947739154100418e-03</internalNodes>
          <leafValues>
            3.4927666187286377e-01 -1.9384653866291046e-01</leafValues></_>
        <_>
          <internalNodes>
            0 -1 139 -1.0429535759612918e-03</internalNodes>
          <leafValues>
            5.2816790342330933e-01 -1.3244846463203430e-01</leafValues></_>
        <_>
          <internalNodes>
            0 -1 7 -1.9965386390686035e-01</internalNodes>
          <leafValues>
            -7.0098197460174561e-01 1.1351984739303589e-01</leafValues></_>
        <_>
          <internalNodes>
            0 -1 98 -4.6873525716364384e-03</internalNodes>
          <leafValues>
            3.6302495002746582e-01 -2.0408554375171661e-01</leafValues></_>
        <_>
          <internalNodes>
            0 -1 110 -5.9134503826498985e-03</internalNodes>
          <leafValues>
            4.9956113100051880e-01 -1.2079855054616928e-01</leafValues></_>
        <_>
          <internalNodes>
            0 -1 144 -1.3391043990850449e-02</internalNodes>
          <leafValues>
            5.2231347560882568e-01 -1.1326500773429871e-01</leafValues></_>
        <_>
          <internalNodes>
            0 -1 192 3.6245673894882202e-02</internalNodes>
          <leafValues>
            -1.6262584924697876e-01 4.0966328978538513e-01</leafValues></_>
        <_>
          <internalNodes>
            0 -1 205 2.4252060800790787e-02</internalNodes>
          <leafValues>
            -1.2748421728610992e-01 5.9449017047882080e-01</leafValues></_>
        <_>
          <internalNodes>
            0 -1 58 -1.4596526324748993e-01</internalNodes>
          <leafValues>
            7.3972028493881226e-01 -7.8405797481536865e-02</leafValues></_>
        <_>
          <internalNodes>
            0 -1 90 -1.6663929272908717e-04</internalNodes>
          <leafValues>
            -3.0361971259117126e-01 2.3244918882846832e-01</leafValues></_>
        <_>
          <internalNodes>
            0 -1 56 -3.8151018321514130e-02</internalNodes>
          <leafValues>
            3.8266053795814514e-01 -2.1209822595119476e-01</leafValues></_>
        <_>
          <internalNodes>
            0 -1 184 8.8601680472493172e-03</internalNodes>
          <leafValues>
            -8.4767840802669525e-02 7.7060610055923462e-01</leafValues></_>
        <_>
          <internalNodes>
            0 -1 234 -1.2289382284507155e-03</internalNodes>
          <leafValues>
            5.0807988643646240e-01 -1.3538564741611481e-01</leafValues></_>
        <_>
          <internalNodes>
            0 -1 178 -9.7165964543819427e-03</internalNodes>
          <leafValues>
            5.9828740358352661e-01 -1.0206521302461624e-01</leafValues></_>
        <_>
          <internalNodes>
            0 -1 232 -8.0669522285461426e-03</internalNodes>
          <leafValues>
            -6.9198441505432129e-01 1.0690578073263168e-01</leafValues></_>
        <_>
          <internalNodes>
            0 -1 229 -9.9572120234370232e-04</internalNodes>
          <leafValues>
            3.5042703151702881e-01 -2.0539741218090057e-01</leafValues></_>
        <_>
          <internalNodes>
            0 -1 228 1.1033518239855766e-03</internalNodes>
          <leafValues>
            -1.4963467419147491e-01 4.7246286273002625e-01</leafValues></_>
        <_>
          <internalNodes>
            0 -1 225 -9.6160301472991705e-04</internalNodes>
          <leafValues>
            3.5065186023712158e-01 -1.7276474833488464e-01</leafValues></_>
        <_>
          <internalNodes>
            0 -1 62 3.3827328588813543e-03</internalNodes>
          <leafValues>
            -1.9396771490573883e-01 3.0814614892005920e-01</leafValues></_>
        <_>
          <internalNodes>
            0 -1 69 3.0251618474721909e-02</internalNodes>
          <leafValues>
            -8.2156695425510406e-02 7.0953863859176636e-01</leafValues></_></weakClassifiers></_>
    <!-- stage 8 -->
    <_>
      <maxWeakCount>20</maxWeakCount>
      <stageThreshold>-4.8692196607589722e-01</stageThreshold>
      <weakClassifiers>
        <_>
          <internalNodes>
            0 -1 165 -6.1489894986152649e-02</internalNodes>
          <leafValues>
            8.1804043054580688e-01 2.0464441180229187e-01</leafValues></_>
        <_>
          <internalNodes>
            0 -1 254 -1.1524859815835953e-02</internalNodes>
          <leafValues>
            5.6466966867446899e-01 -2.0282004773616791e-01</leafValues></_>
        <_>
          <internalNodes>
            0 -1 101 1.7374598979949951e-01</internalNodes>
          <leafValues>
            -1.8798473477363586e-01 6.2240946292877197e-01</leafValues></_>
        <_>
          <internalNodes>
            0 -1 166 -1.4296459034085274e-02</internalNodes>
          <leafValues>
            5.3908479213714600e-01 -1.9803406298160553e-01</leafValues></_>
        <_>
          <internalNodes>
            0 -1 244 2.7648941613733768e-03</internalNodes>
          <leafValues>
            2.1945670247077942e-01 -4.1297727823257446e-01</leafValues></_>
        <_>
          <internalNodes>
            0 -1 50 -1.0420639067888260e-02</internalNodes>
          <leafValues>
            5.0604218244552612e-01 -2.0491026341915131e-01</leafValues></_>
        <_>
          <internalNodes>
            0 -1 248 -1.1304073035717010e-02</internalNodes>
          <leafValues>
            4.8459228873252869e-01 -2.1522746980190277e-01</leafValues></_>
        <_>
          <internalNodes>
            0 -1 115 -6.2436079606413841e-03</internalNodes>
          <leafValues>
            4.3883854150772095e-01 -2.0227505266666412e-01</leafValues></_>
        <_>
          <internalNodes>
            0 -1 22 3.0109703540802002e-01</internalNodes>
          <leafValues>
            -1.2944278120994568e-01 5.6397449970245361e-01</leafValues></_>
        <_>
          <internalNodes>
            0 -1 157 -1.5437991358339787e-02</internalNodes>
          <leafValues>
            6.5615993738174438e-01 -1.2401762604713440e-01</leafValues></_>
        <_>
          <internalNodes>
            0 -1 206 1.9264133647084236e-02</internalNodes>
          <leafValues>
            -1.0389079898595810e-01 6.1104148626327515e-01</leafValues></_>
        <_>
          <internalNodes>
            0 -1 243 2.0181354135274887e-02</internalNodes>
          <leafValues>
            -1.0638810694217682e-01 6.3949054479598999e-01</leafValues></_>
        <_>
          <internalNodes>
            0 -1 32 2.7230864390730858e-02</internalNodes>
          <leafValues>
            -1.3335953652858734e-01 4.9490883946418762e-01</leafValues></_>
        <_>
          <internalNodes>
            0 -1 259 9.7168138017877936e-04</internalNodes>
          <leafValues>
            2.1227724850177765e-01 -3.5868889093399048e-01</leafValues></_>
        <_>
          <internalNodes>
            0 -1 227 -9.6144266426563263e-03</internalNodes>
          <leafValues>
            6.8389004468917847e-01 -9.6287347376346588e-02</leafValues></_>
        <_>
          <internalNodes>
            0 -1 251 8.0978237092494965e-03</internalNodes>
          <leafValues>
            1.5084373950958252e-01 -5.0729382038116455e-01</leafValues></_>
        <_>
          <internalNodes>
            0 -1 238 -9.1766547411680222e-03</internalNodes>
          <leafValues>
            6.2690180540084839e-01 -1.2620127201080322e-01</leafValues></_>
        <_>
          <internalNodes>
            0 -1 128 -3.2246083021163940e-02</internalNodes>
          <leafValues>
            4.7375825047492981e-01 -1.7303004860877991e-01</leafValues></_>
        <_>
          <internalNodes>
            0 -1 96 2.2412406280636787e-02</internalNodes>
          <leafValues>
            -1.5985423326492310e-01 4.9111816287040710e-01</leafValues></_>
        <_>
          <internalNodes>
            0 -1 49 -4.0622521191835403e-03</internalNodes>
          <leafValues>
            3.8190254569053650e-01 -1.7980267107486725e-01</leafValues></_></weakClassifiers></_>
    <!-- stage 9 -->
    <_>
      <maxWeakCount>24</maxWeakCount>
      <stageThreshold>-6.3508766889572144e-01</stageThreshold>
      <weakClassifiers>
        <_>
          <internalNodes>
            0 -1 236 -3.3119162544608116e-03</internalNodes>
          <leafValues>
            7.9962891340255737e-01 3.6900779604911804e-01</leafValues></_>
        <_>
          <internalNodes>
            0 -1 41 4.6770382323302329e-04</internalNodes>
          <leafValues>
            -1.1293625831604004e-01 4.9198791384696960e-01</leafValues></_>
        <_>
          <internalNodes>
            0 -1 91 7.2765951044857502e-03</internalNodes>
          <leafValues>
            -2.0149111747741699e-01 4.3913307785987854e-01</leafValues></_>
        <_>
          <internalNodes>
            0 -1 175 2.5354668032377958e-03</internalNodes>
          <leafValues>
            -1.4640723168849945e-01 5.7616508007049561e-01</leafValues></_>
        <_>
          <internalNodes>
            0 -1 215 -4.0478133596479893e-03</internalNodes>
          <leafValues>
            6.3301843404769897e-01 -1.3271708786487579e-01</leafValues></_>
        <_>
          <internalNodes>
            0 -1 204 1.3700632378458977e-02</internalNodes>
          <leafValues>
            -1.7483669519424438e-01 4.8919317126274109e-01</leafValues></_>
        <_>
          <internalNodes>
            0 -1 153 -4.8747435212135315e-03</internalNodes>
          <leafValues>
            5.3209692239761353e-01 -1.3278299570083618e-01</leafValues></_>
        <_>
          <internalNodes>
            0 -1 72 -2.0104497671127319e-03</internalNodes>
          <leafValues>
            3.3701562881469727e-01 -2.1408399939537048e-01</leafValues></_>
        <_>
          <internalNodes>
            0 -1 196 -1.0841064155101776e-01</internalNodes>
          <leafValues>
            4.9238690733909607e-01 -1.5710900723934174e-01</leafValues></_>
        <_>
          <internalNodes>
            0 -1 249 -1.8115147948265076e-02</internalNodes>
          <leafValues>
            3.2387727499008179e-01 -2.4259226024150848e-01</leafValues></_>
        <_>
          <internalNodes>
            0 -1 130 -9.6424967050552368e-03</internalNodes>
          <leafValues>
            5.6491130590438843e-01 -1.2971603870391846e-01</leafValues></_>
        <_>
          <internalNodes>
            0 -1 194 -6.5095587633550167e-03</internalNodes>
          <leafValues>
            4.5329764485359192e-01 -1.4902369678020477e-01</leafValues></_>
        <_>
          <internalNodes>
            0 -1 246 -1.3083674712106586e-03</internalNodes>
          <leafValues>
            4.6206051111221313e-01 -1.7001779377460480e-01</leafValues></_>
        <_>
          <internalNodes>
            0 -1 132 1.4504219871014357e-03</internalNodes>
          <leafValues>
            -2.1226359903812408e-01 3.5435071587562561e-01</leafValues></_>
        <_>
          <internalNodes>
            0 -1 241 1.3136814814060926e-03</internalNodes>
          <leafValues>
            -1.7603458464145660e-01 4.3176448345184326e-01</leafValues></_>
        <_>
          <internalNodes>
            0 -1 39 -9.0059936046600342e-03</internalNodes>
          <leafValues>
            3.9082321524620056e-01 -1.8771329522132874e-01</leafValues></_>
        <_>
          <internalNodes>
            0 -1 174 -3.4410677850246429e-02</internalNodes>
          <leafValues>
            7.2297549247741699e-01 -9.4195313751697540e-02</leafValues></_>
        <_>
          <internalNodes>
            0 -1 252 -1.6137633938342333e-03</internalNodes>
          <leafValues>
            -4.2633017897605896e-01 1.8737176060676575e-01</leafValues></_>
        <_>
          <internalNodes>
            0 -1 176 -1.4119185507297516e-02</internalNodes>
          <leafValues>
            -8.2298320531845093e-01 8.8789895176887512e-02</leafValues></_>
        <_>
          <internalNodes>
            0 -1 26 5.1580704748630524e-03</internalNodes>
          <leafValues>
            -2.4763280153274536e-01 3.4254685044288635e-01</leafValues></_>
        <_>
          <internalNodes>
            0 -1 160 1.0674059391021729e-02</internalNodes>
          <leafValues>
            -1.4714190363883972e-01 5.2559828758239746e-01</leafValues></_>
        <_>
          <internalNodes>
            0 -1 135 -3.1347878277301788e-02</internalNodes>
          <leafValues>
            6.3699388504028320e-01 -1.2230074405670166e-01</leafValues></_>
        <_>
          <internalNodes>
            0 -1 247 5.1235682331025600e-03</internalNodes>
          <leafValues>
            -1.4332638680934906e-01 4.5104646682739258e-01</leafValues></_>
        <_>
          <internalNodes>
            0 -1 268 3.9967712946236134e-03</internalNodes>
          <leafValues>
            1.0931795835494995e-01 -6.5805196762084961e-01</leafValues></_></weakClassifiers></_>
    <!-- stage 10 -->
    <_>
      <maxWeakCount>24</maxWeakCount>
      <stageThreshold>-4.6524393558502197e-01</stageThreshold>
      <weakClassifiers>
        <_>
          <internalNodes>
            0 -1 125 1.6024370491504669e-01</internalNodes>
          <leafValues>
            4.2832469940185547e-01 8.5312116146087646e-01</leafValues></_>
        <_>
          <internalNodes>
            0 -1 11 9.7419269150123000e-04</internalNodes>
          <leafValues>
            -1.1102630943059921e-01 4.9175363779067993e-01</leafValues></_>
        <_>
          <internalNodes>
            0 -1 27 4.9733119085431099e-03</internalNodes>
          <leafValues>
            2.0845618844032288e-01 -3.4253272414207458e-01</leafValues></_>
        <_>
          <internalNodes>
            0 -1 71 4.6060574240982533e-03</internalNodes>
          <leafValues>
            2.8407189249992371e-01 -3.0943396687507629e-01</leafValues></_>
        <_>
          <internalNodes>
            0 -1 212 1.7997166141867638e-03</internalNodes>
          <leafValues>
            -2.2229942679405212e-01 3.5444524884223938e-01</leafValues></_>
        <_>
          <internalNodes>
            0 -1 190 -6.9187190383672714e-03</internalNodes>
          <leafValues>
            4.9466270208358765e-01 -1.1410952359437943e-01</leafValues></_>
        <_>
          <internalNodes>
            0 -1 261 4.3910375097766519e-05</internalNodes>
          <leafValues>
            -2.5821873545646667e-01 2.7751782536506653e-01</leafValues></_>
        <_>
          <internalNodes>
            0 -1 208 1.9098597113043070e-03</internalNodes>
          <leafValues>
            -1.5061160922050476e-01 4.4043216109275818e-01</leafValues></_>
        <_>
          <internalNodes>
            0 -1 76 -6.3847592100501060e-03</internalNodes>
          <leafValues>
            -3.9750134944915771e-01 1.7185084521770477e-01</leafValues></_>
        <_>
          <internalNodes>
            0 -1 186 -5.0853207707405090e-02</internalNodes>
          <leafValues>
            -6.8790525197982788e-01 9.5928594470024109e-02</leafValues></_>
        <_>
          <internalNodes>
            0 -1 185 3.4562689252197742e-03</internalNodes>
          <leafValues>
            -1.3231810927391052e-01 4.8605287075042725e-01</leafValues></_>
        <_>
          <internalNodes>
            0 -1 37 1.8341513350605965e-03</internalNodes>
          <leafValues>
            -2.0393498241901398e-01 3.0169677734375000e-01</leafValues></_>
        <_>
          <internalNodes>
            0 -1 163 -2.8797867707908154e-03</internalNodes>
          <leafValues>
            4.0024706721305847e-01 -1.5887051820755005e-01</leafValues></_>
        <_>
          <internalNodes>
            0 -1 177 1.2265215814113617e-01</internalNodes>
          <leafValues>
            -1.3068221509456635e-01 4.9604403972625732e-01</leafValues></_>
        <_>
          <internalNodes>
            0 -1 131 -1.7254779115319252e-02</internalNodes>
          <leafValues>
            6.4244717359542847e-01 -9.3589231371879578e-02</leafValues></_>
        <_>
          <internalNodes>
            0 -1 149 -1.0707708075642586e-02</internalNodes>
          <leafValues>
            3.7338009476661682e-01 -1.8839526176452637e-01</leafValues></_>
        <_>
          <internalNodes>
            0 -1 226 -5.4177795536816120e-03</internalNodes>
          <leafValues>
            3.9799013733863831e-01 -1.7991793155670166e-01</leafValues></_>
        <_>
          <internalNodes>
            0 -1 31 -4.2342459782958031e-03</internalNodes>
          <leafValues>
            6.3459700345993042e-01 -9.2367276549339294e-02</leafValues></_>
        <_>
          <internalNodes>
            0 -1 36 4.6127630048431456e-04</internalNodes>
          <leafValues>
            1.5835353732109070e-01 -4.3348291516304016e-01</leafValues></_>
        <_>
          <internalNodes>
            0 -1 112 1.1048919986933470e-03</internalNodes>
          <leafValues>
            -1.2154104560613632e-01 5.3720456361770630e-01</leafValues></_>
        <_>
          <internalNodes>
            0 -1 134 -3.7875028792768717e-03</internalNodes>
          <leafValues>
            8.5138517618179321e-01 -6.7589394748210907e-02</leafValues></_>
        <_>
          <internalNodes>
            0 -1 109 7.5256787240505219e-03</internalNodes>
          <leafValues>
            -2.1356016397476196e-01 2.9418185353279114e-01</leafValues></_>
        <_>
          <internalNodes>
            0 -1 119 1.9528415054082870e-02</internalNodes>
          <leafValues>
            1.1267460137605667e-01 -6.0902553796768188e-01</leafValues></_>
        <_>
          <internalNodes>
            0 -1 63 -1.3805189728736877e-01</internalNodes>
          <leafValues>
            -4.9735853075981140e-01 1.3128033280372620e-01</leafValues></_></weakClassifiers></_>
    <!-- stage 11 -->
    <_>
      <maxWeakCount>20</maxWeakCount>
      <stageThreshold>-7.4532544612884521e-01</stageThreshold>
      <weakClassifiers>
        <_>
          <internalNodes>
            0 -1 165 -1.5068922936916351e-01</internalNodes>
          <leafValues>
            8.8343560695648193e-01 3.2998996973037720e-01</leafValues></_>
        <_>
          <internalNodes>
            0 -1 102 1.4123359322547913e-01</internalNodes>
          <leafValues>
            -1.3722158968448639e-01 6.9407361745834351e-01</leafValues></_>
        <_>
          <internalNodes>
            0 -1 222 -8.1159815192222595e-02</internalNodes>
          <leafValues>
            7.1127277612686157e-01 -1.5619654953479767e-01</leafValues></_>
        <_>
          <internalNodes>
            0 -1 70 3.1924016773700714e-02</internalNodes>
          <leafValues>
            -2.7404955029487610e-01 5.4427725076675415e-01</leafValues></_>
        <_>
          <internalNodes>
            0 -1 155 -3.7596188485622406e-02</internalNodes>
          <leafValues>
            4.6544077992439270e-01 -2.4005807936191559e-01</leafValues></_>
        <_>
          <internalNodes>
            0 -1 209 -6.4327605068683624e-02</internalNodes>
          <leafValues>
            6.3150697946548462e-01 -1.4096397161483765e-01</leafValues></_>
        <_>
          <internalNodes>
            0 -1 198 1.4128946699202061e-02</internalNodes>
          <leafValues>
            -2.4404592812061310e-01 4.0739160776138306e-01</leafValues></_>
        <_>
          <internalNodes>
            0 -1 73 2.6832276489585638e-04</internalNodes>
          <leafValues>
            2.0416735112667084e-01 -4.7978919744491577e-01</leafValues></_>
        <_>
          <internalNodes>
            0 -1 258 1.2619772460311651e-03</internalNodes>
          <leafValues>
            1.5129525959491730e-01 -5.4892969131469727e-01</leafValues></_>
        <_>
          <internalNodes>
            0 -1 202 -3.4523688256740570e-02</internalNodes>
          <leafValues>
            8.3800894021987915e-01 -9.5617584884166718e-02</leafValues></_>
        <_>
          <internalNodes>
            0 -1 154 3.5560585558414459e-02</internalNodes>
          <leafValues>
            -7.1292258799076080e-02 9.1600400209426880e-01</leafValues></_>
        <_>
          <internalNodes>
            0 -1 40 3.9347022771835327e-02</internalNodes>
          <leafValues>
            -6.9243527948856354e-02 8.1375426054000854e-01</leafValues></_>
        <_>
          <internalNodes>
            0 -1 59 -3.7704817950725555e-02</internalNodes>
          <leafValues>
            6.6219490766525269e-01 -8.8243521749973297e-02</leafValues></_>
        <_>
          <internalNodes>
            0 -1 113 1.1460782960057259e-02</internalNodes>
          <leafValues>
            -2.6069620251655579e-01 3.6040723323822021e-01</leafValues></_>
        <_>
          <internalNodes>
            0 -1 18 9.4193682074546814e-02</internalNodes>
          <leafValues>
            -2.4031472206115723e-01 3.6739352345466614e-01</leafValues></_>
        <_>
          <internalNodes>
            0 -1 169 -1.5433881431818008e-02</internalNodes>
          <leafValues>
            4.7844365239143372e-01 -1.7610603570938110e-01</leafValues></_>
        <_>
          <internalNodes>
            0 -1 13 -1.8230804707854986e-03</internalNodes>
          <leafValues>
            -4.1118216514587402e-01 1.8921661376953125e-01</leafValues></_>
        <_>
          <internalNodes>
            0 -1 264 6.7087262868881226e-04</internalNodes>
          <leafValues>
            1.1362602561712265e-01 -6.2301510572433472e-01</leafValues></_>
        <_>
          <internalNodes>
            0 -1 114 6.3917301595211029e-03</internalNodes>
          <leafValues>
            -1.4422136545181274e-01 4.8653239011764526e-01</leafValues></_>
        <_>
          <internalNodes>
            0 -1 24 -1.2491875328123569e-02</internalNodes>
          <leafValues>
            4.4827950000762939e-01 -1.6649278998374939e-01</leafValues></_></weakClassifiers></_>
    <!-- stage 12 -->
    <_>
      <maxWeakCount>14</maxWeakCount>
      <stageThreshold>-5.2686482667922974e-01</stageThreshold>
      <weakClassifiers>
        <_>
          <internalNodes>
            0 -1 16 1.2729788199067116e-02</internalNodes>
          <leafValues>
            2.8252300620079041e-01 8.0560129880905151e-01</leafValues></_>
        <_>
          <internalNodes>
            0 -1 256 -1.8569646403193474e-02</internalNodes>
          <leafValues>
            6.9224166870117188e-01 -1.1922344565391541e-01</leafValues></_>
        <_>
          <internalNodes>
            0 -1 187 -1.1444019526243210e-01</internalNodes>
          <leafValues>
            6.7960762977600098e-01 -2.5337532162666321e-01</leafValues></_>
        <_>
          <internalNodes>
            0 -1 57 4.7398591414093971e-03</internalNodes>
          <leafValues>
            -2.3560515046119690e-01 4.2691919207572937e-01</leafValues></_>
        <_>
          <internalNodes>
            0 -1 12 -5.1892665214836597e-04</internalNodes>
          <leafValues>
            -3.2990077137947083e-01 2.6846557855606079e-01</leafValues></_>
        <_>
          <internalNodes>
            0 -1 267 -7.7921338379383087e-03</internalNodes>
          <leafValues>
            -8.1470984220504761e-01 9.3296013772487640e-02</leafValues></_>
        <_>
          <internalNodes>
            0 -1 265 -2.9400112107396126e-03</internalNodes>
          <leafValues>
            4.3209704756736755e-01 -1.8678307533264160e-01</leafValues></_>
        <_>
          <internalNodes>
            0 -1 200 -8.2491468638181686e-03</internalNodes>
          <leafValues>
            4.8272311687469482e-01 -1.6732448339462280e-01</leafValues></_>
        <_>
          <internalNodes>
            0 -1 257 1.2901665642857552e-02</internalNodes>
          <leafValues>
            1.0157486796379089e-01 -7.9209059476852417e-01</leafValues></_>
        <_>
          <internalNodes>
            0 -1 1 -8.9418794959783554e-04</internalNodes>
          <leafValues>
            -3.5800662636756897e-01 2.0383340120315552e-01</leafValues></_>
        <_>
          <internalNodes>
            0 -1 140 -1.3574211858212948e-02</internalNodes>
          <leafValues>
            7.4539977312088013e-01 -1.1369020491838455e-01</leafValues></_>
        <_>
          <internalNodes>
            0 -1 123 -3.0481636524200439e-02</internalNodes>
          <leafValues>
            6.6160762310028076e-01 -1.0875777155160904e-01</leafValues></_>
        <_>
          <internalNodes>
            0 -1 173 3.2357331365346909e-02</internalNodes>
          <leafValues>
            -1.3320383429527283e-01 5.8657592535018921e-01</leafValues></_>
        <_>
          <internalNodes>
            0 -1 182 -7.1197673678398132e-02</internalNodes>
          <leafValues>
            4.3403396010398865e-01 -1.8399065732955933e-01</leafValues></_></weakClassifiers></_>
    <!-- stage 13 -->
    <_>
      <maxWeakCount>18</maxWeakCount>
      <stageThreshold>-7.6557564735412598e-01</stageThreshold>
      <weakClassifiers>
        <_>
          <internalNodes>
            0 -1 230 3.1971642747521400e-03</internalNodes>
          <leafValues>
            7.7671885490417480e-01 1.0276679694652557e-01</leafValues></_>
        <_>
          <internalNodes>
            0 -1 216 -2.5685466825962067e-03</internalNodes>
          <leafValues>
            4.7954902052879333e-01 -3.6395928263664246e-01</leafValues></_>
        <_>
          <internalNodes>
            0 -1 28 1.1759957298636436e-02</internalNodes>
          <leafValues>
            -2.3163542151451111e-01 5.8933448791503906e-01</leafValues></_>
        <_>
          <internalNodes>
            0 -1 250 -2.6940673589706421e-02</internalNodes>
          <leafValues>
            5.7228368520736694e-01 -1.8993234634399414e-01</leafValues></_>
        <_>
          <internalNodes>
            0 -1 10 4.7624073922634125e-02</internalNodes>
          <leafValues>
            -2.3845504224300385e-01 4.6544766426086426e-01</leafValues></_>
        <_>
          <internalNodes>
            0 -1 105 3.3475905656814575e-02</internalNodes>
          <leafValues>
            -2.6409828662872314e-01 3.7725293636322021e-01</leafValues></_>
        <_>
          <internalNodes>
            0 -1 167 7.4374273419380188e-02</internalNodes>
          <leafValues>
            -1.3251173496246338e-01 7.2470915317535400e-01</leafValues></_>
        <_>
          <internalNodes>
            0 -1 171 2.4433463811874390e-02</internalNodes>
          <leafValues>
            -1.6926878690719604e-01 4.8702660202980042e-01</leafValues></_>
        <_>
          <internalNodes>
            0 -1 127 7.8599229454994202e-02</internalNodes>
          <leafValues>
            -1.3703556358814240e-01 7.0549517869949341e-01</leafValues></_>
        <_>
          <internalNodes>
            0 -1 17 8.2598412409424782e-03</internalNodes>
          <leafValues>
            -3.0931797623634338e-01 2.9995760321617126e-01</leafValues></_>
        <_>
          <internalNodes>
            0 -1 245 -2.8656778158620000e-04</internalNodes>
          <leafValues>
            -3.3369544148445129e-01 2.4579846858978271e-01</leafValues></_>
        <_>
          <internalNodes>
            0 -1 121 3.1541489064693451e-02</internalNodes>
          <leafValues>
            -2.4912063777446747e-01 3.3226090669631958e-01</leafValues></_>
        <_>
          <internalNodes>
            0 -1 103 -2.5404751067981124e-04</internalNodes>
          <leafValues>
            -3.4123936295509338e-01 2.7735731005668640e-01</leafValues></_>
        <_>
          <internalNodes>
            0 -1 2 8.1734895706176758e-02</internalNodes>
          <leafValues>
            1.1377285420894623e-01 -7.2949337959289551e-01</leafValues></_>
        <_>
          <internalNodes>
            0 -1 42 1.7318968893960118e-03</internalNodes>
          <leafValues>
            -2.3095749318599701e-01 4.1837060451507568e-01</leafValues></_>
        <_>
          <internalNodes>
            0 -1 83 -6.3171938061714172e-02</internalNodes>
          <leafValues>
            8.2075071334838867e-01 -1.0136552900075912e-01</leafValues></_>
        <_>
          <internalNodes>
            0 -1 138 9.1398572549223900e-03</internalNodes>
          <leafValues>
            -1.6312643885612488e-01 5.4241639375686646e-01</leafValues></_>
        <_>
          <internalNodes>
            0 -1 20 -2.8820540755987167e-02</internalNodes>
          <leafValues>
            4.2198562622070313e-01 -2.1373759210109711e-01</leafValues></_></weakClassifiers></_>
    <!-- stage 14 -->
    <_>
      <maxWeakCount>18</maxWeakCount>
      <stageThreshold>-5.0255376100540161e-01</stageThreshold>
      <weakClassifiers>
        <_>
          <internalNodes>
            0 -1 0 8.1823647022247314e-02</internalNodes>
          <leafValues>
            6.9239073991775513e-01 -7.3770493268966675e-01</leafValues></_>
        <_>
          <internalNodes>
            0 -1 79 6.5604533301666379e-04</internalNodes>
          <leafValues>
            -1.5664213895797729e-01 5.1220428943634033e-01</leafValues></_>
        <_>
          <internalNodes>
            0 -1 2 6.5675593912601471e-02</internalNodes>
          <leafValues>
            1.2530943751335144e-01 -6.5334653854370117e-01</leafValues></_>
        <_>
          <internalNodes>
            0 -1 217 5.3011931478977203e-02</internalNodes>
          <leafValues>
            -2.7167353034019470e-01 3.1220078468322754e-01</leafValues></_>
        <_>
          <internalNodes>
            0 -1 104 1.6424155328422785e-03</internalNodes>
          <leafValues>
            -2.4836289882659912e-01 2.9313352704048157e-01</leafValues></_>
        <_>
          <internalNodes>
            0 -1 3 1.0891301184892654e-01</internalNodes>
          <leafValues>
            1.1219160258769989e-01 -6.7406433820724487e-01</leafValues></_>
        <_>
          <internalNodes>
            0 -1 67 8.5732899606227875e-03</internalNodes>
          <leafValues>
            -2.3190037906169891e-01 3.4409156441688538e-01</leafValues></_>
        <_>
          <internalNodes>
            0 -1 193 2.5030888617038727e-02</internalNodes>
          <leafValues>
            -1.6426405310630798e-01 5.7560735940933228e-01</leafValues></_>
        <_>
          <internalNodes>
            0 -1 48 -1.8083313107490540e-01</internalNodes>
          <leafValues>
            -6.5946447849273682e-01 1.1312202364206314e-01</leafValues></_>
        <_>
          <internalNodes>
            0 -1 181 5.6242644786834717e-02</internalNodes>
          <leafValues>
            -1.2520709633827209e-01 6.5615087747573853e-01</leafValues></_>
        <_>
          <internalNodes>
            0 -1 55 -4.4577006250619888e-02</internalNodes>
          <leafValues>
            3.3510789275169373e-01 -2.2052109241485596e-01</leafValues></_>
        <_>
          <internalNodes>
            0 -1 64 2.8042644262313843e-02</internalNodes>
          <leafValues>
            1.1010272055864334e-01 -7.3296052217483521e-01</leafValues></_>
        <_>
          <internalNodes>
            0 -1 231 1.1052006855607033e-02</internalNodes>
          <leafValues>
            8.8324949145317078e-02 -6.6079986095428467e-01</leafValues></_>
        <_>
          <internalNodes>
            0 -1 9 1.4783515594899654e-02</internalNodes>
          <leafValues>
            -1.9559448957443237e-01 3.9164787530899048e-01</leafValues></_>
        <_>
          <internalNodes>
            0 -1 191 1.3367620296776295e-02</internalNodes>
          <leafValues>
            -1.4013163745403290e-01 4.5518672466278076e-01</leafValues></_>
        <_>
          <internalNodes>
            0 -1 65 5.3541869856417179e-03</internalNodes>
          <leafValues>
            -1.7310246825218201e-01 4.0093955397605896e-01</leafValues></_>
        <_>
          <internalNodes>
            0 -1 15 2.7108900249004364e-03</internalNodes>
          <leafValues>
            2.3018148541450500e-01 -3.1060680747032166e-01</leafValues></_>
        <_>
          <internalNodes>
            0 -1 84 5.3466632962226868e-03</internalNodes>
          <leafValues>
            1.0363290458917618e-01 -6.6907936334609985e-01</leafValues></_></weakClassifiers></_></stages>
  <features>
    <_>
      <rects>
        <_>
          0 0 6 12 -1.</_>
        <_>
          3 0 3 12 2.</_></rects>
      <tilted>0</tilted></_>
    <_>
      <rects>
        <_>
          0 0 8 3 -1.</_>
        <_>
          4 0 4 3 2.</_></rects>
      <tilted>0</tilted></_>
    <_>
      <rects>
        <_>
          0 0 15 6 -1.</_>
        <_>
          5 0 5 6 3.</_></rects>
      <tilted>0</tilted></_>
    <_>
      <rects>
        <_>
          0 0 12 6 -1.</_>
        <_>
          6 0 6 6 2.</_></rects>
      <tilted>0</tilted></_>
    <_>
      <rects>
        <_>
          0 0 8 4 -1.</_>
        <_>
          0 2 8 2 2.</_></rects>
      <tilted>0</tilted></_>
    <_>
      <rects>
        <_>
          0 0 16 5 -1.</_>
        <_>
          8 0 8 5 2.</_></rects>
      <tilted>0</tilted></_>
    <_>
      <rects>
        <_>
          0 0 18 19 -1.</_>
        <_>
          9 0 9 19 2.</_></rects>
      <tilted>0</tilted></_>
    <_>
      <rects>
        <_>
          0 0 10 24 -1.</_>
        <_>
          0 12 10 12 2.</_></rects>
      <tilted>0</tilted></_>
    <_>
      <rects>
        <_>
          0 0 24 5 -1.</_>
        <_>
          12 0 12 5 2.</_></rects>
      <tilted>0</tilted></_>
    <_>
      <rects>
        <_>
          0 0 23 4 -1.</_>
        <_>
          0 2 23 2 2.</_></rects>
      <tilted>0</tilted></_>
    <_>
      <rects>
        <_>
          0 0 24 8 -1.</_>
        <_>
          0 4 24 4 2.</_></rects>
      <tilted>0</tilted></_>
    <_>
      <rects>
        <_>
          0 1 2 4 -1.</_>
        <_>
          1 1 1 4 2.</_></rects>
      <tilted>0</tilted></_>
    <_>
      <rects>
        <_>
          0 1 1 12 -1.</_>
        <_>
          0 5 1 4 3.</_></rects>
      <tilted>0</tilted></_>
    <_>
      <rects>
        <_>
          0 1 7 3 -1.</_>
        <_>
          0 2 7 1 3.</_></rects>
      <tilted>0</tilted></_>
    <_>
      <rects>
        <_>
          0 2 6 9 -1.</_>
        <_>
          3 2 3 9 2.</_></rects>
      <tilted>0</tilted></_>
    <_>
      <rects>
        <_>
          0 4 1 20 -1.</_>
        <_>
          0 14 1 10 2.</_></rects>
      <tilted>0</tilted></_>
    <_>
      <rects>
        <_>
          0 4 10 4 -1.</_>
        <_>
          5 4 5 4 2.</_></rects>
      <tilted>0</tilted></_>
    <_>
      <rects>
        <_>
          0 6 8 5 -1.</_>
        <_>
          4 6 4 5 2.</_></rects>
      <tilted>0</tilted></_>
    <_>
      <rects>
        <_>
          0 6 18 18 -1.</_>
        <_>
          0 12 18 6 3.</_></rects>
      <tilted>0</tilted></_>
    <_>
      <rects>
        <_>
          0 7 1 3 -1.</_>
        <_>
          0 8 1 1 3.</_></rects>
      <tilted>0</tilted></_>
    <_>
      <rects>
        <_>
          0 7 9 17 -1.</_>
        <_>
          3 7 3 17 3.</_></rects>
      <tilted>0</tilted></_>
    <_>
      <rects>
        <_>
          0 7 10 3 -1.</_>
        <_>
          5 7 5 3 2.</_></rects>
      <tilted>0</tilted></_>
    <_>
      <rects>
        <_>
          0 7 24 13 -1.</_>
        <_>
          8 7 8 13 3.</_></rects>
      <tilted>0</tilted></_>
    <_>
      <rects>
        <_>
          0 9 21 8 -1.</_>
        <_>
          7 9 7 8 3.</_></rects>
      <tilted>0</tilted></_>
    <_>
      <rects>
        <_>
          0 9 8 9 -1.</_>
        <_>
          0 12 8 3 3.</_></rects>
      <tilted>0</tilted></_>
    <_>
      <rects>
        <_>
          0 10 6 8 -1.</_>
        <_>
          0 10 3 4 2.</_>
        <_>
          3 14 3 4 2.</_></rects>
      <tilted>0</tilted></_>
    <_>
      <rects>
        <_>
          0 11 6 3 -1.</_>
        <_>
          3 11 3 3 2.</_></rects>
      <tilted>0</tilted></_>
    <_>
      <rects>
        <_>
          0 11 4 12 -1.</_>
        <_>
          0 17 4 6 2.</_></rects>
      <tilted>0</tilted></_>
    <_>
      <rects>
        <_>
          0 12 4 11 -1.</_>
        <_>
          2 12 2 11 2.</_></rects>
      <tilted>0</tilted></_>
    <_>
      <rects>
        <_>
          0 13 4 4 -1.</_>
        <_>
          2 13 2 4 2.</_></rects>
      <tilted>0</tilted></_>
    <_>
      <rects>
        <_>
          0 14 8 3 -1.</_>
        <_>
          0 15 8 1 3.</_></rects>
      <tilted>0</tilted></_>
    <_>
      <rects>
        <_>
          0 15 2 7 -1.</_>
        <_>
          1 15 1 7 2.</_></rects>
      <tilted>0</tilted></_>
    <_>
      <rects>
        <_>
          0 15 6 9 -1.</_>
        <_>
          3 15 3 9 2.</_></rects>
      <tilted>0</tilted></_>
    <_>
      <rects>
        <_>
          0 16 4 4 -1.</_>
        <_>
          2 16 2 4 2.</_></rects>
      <tilted>0</tilted></_>
    <_>
      <rects>
        <_>
          0 16 15 3 -1.</_>
        <_>
          0 17 15 1 3.</_></rects>
      <tilted>0</tilted></_>
    <_>
      <rects>
        <_>
          0 18 17 6 -1.</_>
        <_>
          0 21 17 3 2.</_></rects>
      <tilted>0</tilted></_>
    <_>
      <rects>
        <_>
          0 19 1 3 -1.</_>
        <_>
          0 20 1 1 3.</_></rects>
      <tilted>0</tilted></_>
    <_>
      <rects>
        <_>
          0 19 4 5 -1.</_>
        <_>
          2 19 2 5 2.</_></rects>
      <tilted>0</tilted></_>
    <_>
      <rects>
        <_>
          0 20 6 4 -1.</_>
        <_>
          0 20 3 2 2.</_>
        <_>
          3 22 3 2 2.</_></rects>
      <tilted>0</tilted></_>
    <_>
      <rects>
        <_>
          0 20 16 4 -1.</_>
        <_>
          0 22 16 2 2.</_></rects>
      <tilted>0</tilted></_>
    <_>
      <rects>
        <_>
          0 21 10 3 -1.</_>
        <_>
          5 21 5 3 2.</_></rects>
      <tilted>0</tilted></_>
    <_>
      <rects>
        <_>
          1 0 2 2 -1.</_>
        <_>
          2 0 1 2 2.</_></rects>
      <tilted>0</tilted></_>
    <_>
      <rects>
        <_>
          1 0 6 1 -1.</_>
        <_>
          4 0 3 1 2.</_></rects>
      <tilted>0</tilted></_>
    <_>
      <rects>
        <_>
          1 0 15 4 -1.</_>
        <_>
          6 0 5 4 3.</_></rects>
      <tilted>0</tilted></_>
    <_>
      <rects>
        <_>
          1 0 14 2 -1.</_>
        <_>
          8 0 7 2 2.</_></rects>
      <tilted>0</tilted></_>
    <_>
      <rects>
        <_>
          1 0 8 24 -1.</_>
        <_>
          1 8 8 8 3.</_></rects>
      <tilted>0</tilted></_>
    <_>
      <rects>
        <_>
          1 4 5 3 -1.</_>
        <_>
          1 5 5 1 3.</_></rects>
      <tilted>0</tilted></_>
    <_>
      <rects>
        <_>
          1 4 10 5 -1.</_>
        <_>
          6 4 5 5 2.</_></rects>
      <tilted>0</tilted></_>
    <_>
      <rects>
        <_>
          1 4 22 11 -1.</_>
        <_>
          12 4 11 11 2.</_></rects>
      <tilted>0</tilted></_>
    <_>
      <rects>
        <_>
          1 8 9 4 -1.</_>
        <_>
          4 8 3 4 3.</_></rects>
      <tilted>0</tilted></_>
    <_>
      <rects>
        <_>
          1 12 9 5 -1.</_>
        <_>
          4 12 3 5 3.</_></rects>
      <tilted>0</tilted></_>
    <_>
      <rects>
        <_>
          1 12 12 12 -1.</_>
        <_>
          1 16 12 4 3.</_></rects>
      <tilted>0</tilted></_>
    <_>
      <rects>
        <_>
          1 12 20 12 -1.</_>
        <_>
          1 16 20 4 3.</_></rects>
      <tilted>0</tilted></_>
    <_>
      <rects>
        <_>
          1 14 14 6 -1.</_>
        <_>
          1 14 7 3 2.</_>
        <_>
          8 17 7 3 2.</_></rects>
      <tilted>0</tilted></_>
    <_>
      <rects>
        <_>
          1 15 6 6 -1.</_>
        <_>
          1 15 3 3 2.</_>
        <_>
          4 18 3 3 2.</_></rects>
      <tilted>0</tilted></_>
    <_>
      <rects>
        <_>
          1 15 22 8 -1.</_>
        <_>
          1 19 22 4 2.</_></rects>
      <tilted>0</tilted></_>
    <_>
      <rects>
        <_>
          1 16 16 8 -1.</_>
        <_>
          1 20 16 4 2.</_></rects>
      <tilted>0</tilted></_>
    <_>
      <rects>
        <_>
          1 17 4 7 -1.</_>
        <_>
          3 17 2 7 2.</_></rects>
      <tilted>0</tilted></_>
    <_>
      <rects>
        <_>
          1 17 18 7 -1.</_>
        <_>
          7 17 6 7 3.</_></rects>
      <tilted>0</tilted></_>
    <_>
      <rects>
        <_>
          1 18 12 4 -1.</_>
        <_>
          7 18 6 4 2.</_></rects>
      <tilted>0</tilted></_>
    <_>
      <rects>
        <_>
          1 19 18 3 -1.</_>
        <_>
          7 19 6 3 3.</_></rects>
      <tilted>0</tilted></_>
    <_>
      <rects>
        <_>
          1 20 3 3 -1.</_>
        <_>
          1 21 3 1 3.</_></rects>
      <tilted>0</tilted></_>
    <_>
      <rects>
        <_>
          2 0 4 5 -1.</_>
        <_>
          4 0 2 5 2.</_></rects>
      <tilted>0</tilted></_>
    <_>
      <rects>
        <_>
          2 0 18 24 -1.</_>
        <_>
          2 8 18 8 3.</_></rects>
      <tilted>0</tilted></_>
    <_>
      <rects>
        <_>
          2 2 2 15 -1.</_>
        <_>
          2 7 2 5 3.</_></rects>
      <tilted>0</tilted></_>
    <_>
      <rects>
        <_>
          2 3 10 4 -1.</_>
        <_>
          2 3 5 2 2.</_>
        <_>
          7 5 5 2 2.</_></rects>
      <tilted>0</tilted></_>
    <_>
      <rects>
        <_>
          2 4 12 12 -1.</_>
        <_>
          2 8 12 4 3.</_></rects>
      <tilted>0</tilted></_>
    <_>
      <rects>
        <_>
          2 5 4 9 -1.</_>
        <_>
          4 5 2 9 2.</_></rects>
      <tilted>0</tilted></_>
    <_>
      <rects>
        <_>
          2 10 11 9 -1.</_>
        <_>
          2 13 11 3 3.</_></rects>
      <tilted>0</tilted></_>
    <_>
      <rects>
        <_>
          2 13 9 4 -1.</_>
        <_>
          5 13 3 4 3.</_></rects>
      <tilted>0</tilted></_>
    <_>
      <rects>
        <_>
          2 16 10 8 -1.</_>
        <_>
          7 16 5 8 2.</_></rects>
      <tilted>0</tilted></_>
    <_>
      <rects>
        <_>
          2 16 22 8 -1.</_>
        <_>
          13 16 11 8 2.</_></rects>
      <tilted>0</tilted></_>
    <_>
      <rects>
        <_>
          2 19 14 2 -1.</_>
        <_>
          2 20 14 1 2.</_></rects>
      <tilted>0</tilted></_>
    <_>
      <rects>
        <_>
          2 22 1 2 -1.</_>
        <_>
          2 23 1 1 2.</_></rects>
      <tilted>0</tilted></_>
    <_>
      <rects>
        <_>
          3 0 4 20 -1.</_>
        <_>
          3 0 2 10 2.</_>
        <_>
          5 10 2 10 2.</_></rects>
      <tilted>0</tilted></_>
    <_>
      <rects>
        <_>
          3 0 4 11 -1.</_>
        <_>
          5 0 2 11 2.</_></rects>
      <tilted>0</tilted></_>
    <_>
      <rects>
        <_>
          3 0 14 5 -1.</_>
        <_>
          10 0 7 5 2.</_></rects>
      <tilted>0</tilted></_>
    <_>
      <rects>
        <_>
          3 0 14 7 -1.</_>
        <_>
          10 0 7 7 2.</_></rects>
      <tilted>0</tilted></_>
    <_>
      <rects>
        <_>
          3 0 16 5 -1.</_>
        <_>
          11 0 8 5 2.</_></rects>
      <tilted>0</tilted></_>
    <_>
      <rects>
        <_>
          3 1 2 5 -1.</_>
        <_>
          4 1 1 5 2.</_></rects>
      <tilted>0</tilted></_>
    <_>
      <rects>
        <_>
          3 2 16 2 -1.</_>
        <_>
          11 2 8 2 2.</_></rects>
      <tilted>0</tilted></_>
    <_>
      <rects>
        <_>
          3 2 16 15 -1.</_>
        <_>
          11 2 8 15 2.</_></rects>
      <tilted>0</tilted></_>
    <_>
      <rects>
        <_>
          3 3 21 9 -1.</_>
        <_>
          10 3 7 9 3.</_></rects>
      <tilted>0</tilted></_>
    <_>
      <rects>
        <_>
          3 6 8 17 -1.</_>
        <_>
          7 6 4 17 2.</_></rects>
      <tilted>0</tilted></_>
    <_>
      <rects>
        <_>
          3 10 4 1 -1.</_>
        <_>
          5 10 2 1 2.</_></rects>
      <tilted>0</tilted></_>
    <_>
      <rects>
        <_>
          3 10 18 14 -1.</_>
        <_>
          3 10 9 7 2.</_>
        <_>
          12 17 9 7 2.</_></rects>
      <tilted>0</tilted></_>
    <_>
      <rects>
        <_>
          3 12 12 10 -1.</_>
        <_>
          3 12 6 5 2.</_>
        <_>
          9 17 6 5 2.</_></rects>
      <tilted>0</tilted></_>
    <_>
      <rects>
        <_>
          3 18 8 6 -1.</_>
        <_>
          3 21 8 3 2.</_></rects>
      <tilted>0</tilted></_>
    <_>
      <rects>
        <_>
          3 21 10 1 -1.</_>
        <_>
          8 21 5 1 2.</_></rects>
      <tilted>0</tilted></_>
    <_>
      <rects>
        <_>
          3 22 1 2 -1.</_>
        <_>
          3 23 1 1 2.</_></rects>
      <tilted>0</tilted></_>
    <_>
      <rects>
        <_>
          4 0 4 3 -1.</_>
        <_>
          6 0 2 3 2.</_></rects>
      <tilted>0</tilted></_>
    <_>
      <rects>
        <_>
          4 0 9 6 -1.</_>
        <_>
          7 0 3 6 3.</_></rects>
      <tilted>0</tilted></_>
    <_>
      <rects>
        <_>
          4 2 20 12 -1.</_>
        <_>
          4 2 10 6 2.</_>
        <_>
          14 8 10 6 2.</_></rects>
      <tilted>0</tilted></_>
    <_>
      <rects>
        <_>
          4 4 2 1 -1.</_>
        <_>
          5 4 1 1 2.</_></rects>
      <tilted>0</tilted></_>
    <_>
      <rects>
        <_>
          4 4 2 7 -1.</_>
        <_>
          5 4 1 7 2.</_></rects>
      <tilted>0</tilted></_>
    <_>
      <rects>
        <_>
          4 5 4 14 -1.</_>
        <_>
          6 5 2 14 2.</_></rects>
      <tilted>0</tilted></_>
    <_>
      <rects>
        <_>
          4 5 10 14 -1.</_>
        <_>
          4 5 5 7 2.</_>
        <_>
          9 12 5 7 2.</_></rects>
      <tilted>0</tilted></_>
    <_>
      <rects>
        <_>
          4 5 18 16 -1.</_>
        <_>
          4 13 18 8 2.</_></rects>
      <tilted>0</tilted></_>
    <_>
      <rects>
        <_>
          4 13 6 6 -1.</_>
        <_>
          6 13 2 6 3.</_></rects>
      <tilted>0</tilted></_>
    <_>
      <rects>
        <_>
          5 0 1 4 -1.</_>
        <_>
          5 2 1 2 2.</_></rects>
      <tilted>0</tilted></_>
    <_>
      <rects>
        <_>
          5 0 18 4 -1.</_>
        <_>
          11 0 6 4 3.</_></rects>
      <tilted>0</tilted></_>
    <_>
      <rects>
        <_>
          5 0 17 18 -1.</_>
        <_>
          5 6 17 6 3.</_></rects>
      <tilted>0</tilted></_>
    <_>
      <rects>
        <_>
          5 0 19 18 -1.</_>
        <_>
          5 6 19 6 3.</_></rects>
      <tilted>0</tilted></_>
    <_>
      <rects>
        <_>
          5 1 6 1 -1.</_>
        <_>
          7 1 2 1 3.</_></rects>
      <tilted>0</tilted></_>
    <_>
      <rects>
        <_>
          5 1 4 3 -1.</_>
        <_>
          7 1 2 3 2.</_></rects>
      <tilted>0</tilted></_>
    <_>
      <rects>
        <_>
          5 1 6 20 -1.</_>
        <_>
          8 1 3 20 2.</_></rects>
      <tilted>0</tilted></_>
    <_>
      <rects>
        <_>
          5 3 3 12 -1.</_>
        <_>
          5 7 3 4 3.</_></rects>
      <tilted>0</tilted></_>
    <_>
      <rects>
        <_>
          5 5 18 9 -1.</_>
        <_>
          5 8 18 3 3.</_></rects>
      <tilted>0</tilted></_>
    <_>
      <rects>
        <_>
          5 6 4 8 -1.</_>
        <_>
          5 6 2 4 2.</_>
        <_>
          7 10 2 4 2.</_></rects>
      <tilted>0</tilted></_>
    <_>
      <rects>
        <_>
          5 7 4 12 -1.</_>
        <_>
          7 7 2 12 2.</_></rects>
      <tilted>0</tilted></_>
    <_>
      <rects>
        <_>
          5 8 10 4 -1.</_>
        <_>
          5 8 5 2 2.</_>
        <_>
          10 10 5 2 2.</_></rects>
      <tilted>0</tilted></_>
    <_>
      <rects>
        <_>
          5 8 16 10 -1.</_>
        <_>
          5 13 16 5 2.</_></rects>
      <tilted>0</tilted></_>
    <_>
      <rects>
        <_>
          5 10 2 4 -1.</_>
        <_>
          5 10 1 2 2.</_>
        <_>
          6 12 1 2 2.</_></rects>
      <tilted>0</tilted></_>
    <_>
      <rects>
        <_>
          5 11 6 11 -1.</_>
        <_>
          8 11 3 11 2.</_></rects>
      <tilted>0</tilted></_>
    <_>
      <rects>
        <_>
          5 13 8 6 -1.</_>
        <_>
          5 13 4 3 2.</_>
        <_>
          9 16 4 3 2.</_></rects>
      <tilted>0</tilted></_>
    <_>
      <rects>
        <_>
          5 14 9 5 -1.</_>
        <_>
          8 14 3 5 3.</_></rects>
      <tilted>0</tilted></_>
    <_>
      <rects>
        <_>
          5 15 10 6 -1.</_>
        <_>
          5 15 5 3 2.</_>
        <_>
          10 18 5 3 2.</_></rects>
      <tilted>0</tilted></_>
    <_>
      <rects>
        <_>
          5 16 14 8 -1.</_>
        <_>
          5 16 7 4 2.</_>
        <_>
          12 20 7 4 2.</_></rects>
      <tilted>0</tilted></_>
    <_>
      <rects>
        <_>
          5 18 2 6 -1.</_>
        <_>
          5 21 2 3 2.</_></rects>
      <tilted>0</tilted></_>
    <_>
      <rects>
        <_>
          6 0 2 24 -1.</_>
        <_>
          7 0 1 24 2.</_></rects>
      <tilted>0</tilted></_>
    <_>
      <rects>
        <_>
          6 0 18 3 -1.</_>
        <_>
          12 0 6 3 3.</_></rects>
      <tilted>0</tilted></_>
    <_>
      <rects>
        <_>
          6 0 18 9 -1.</_>
        <_>
          12 0 6 9 3.</_></rects>
      <tilted>0</tilted></_>
    <_>
      <rects>
        <_>
          6 0 15 18 -1.</_>
        <_>
          6 6 15 6 3.</_></rects>
      <tilted>0</tilted></_>
    <_>
      <rects>
        <_>
          6 0 17 8 -1.</_>
        <_>
          6 4 17 4 2.</_></rects>
      <tilted>0</tilted></_>
    <_>
      <rects>
        <_>
          6 1 15 7 -1.</_>
        <_>
          11 1 5 7 3.</_></rects>
      <tilted>0</tilted></_>
    <_>
      <rects>
        <_>
          6 1 18 18 -1.</_>
        <_>
          6 7 18 6 3.</_></rects>
      <tilted>0</tilted></_>
    <_>
      <rects>
        <_>
          6 2 2 18 -1.</_>
        <_>
          6 2 1 9 2.</_>
        <_>
          7 11 1 9 2.</_></rects>
      <tilted>0</tilted></_>
    <_>
      <rects>
        <_>
          6 4 18 12 -1.</_>
        <_>
          6 10 18 6 2.</_></rects>
      <tilted>0</tilted></_>
    <_>
      <rects>
        <_>
          6 6 8 18 -1.</_>
        <_>
          6 6 4 9 2.</_>
        <_>
          10 15 4 9 2.</_></rects>
      <tilted>0</tilted></_>
    <_>
      <rects>
        <_>
          7 0 4 24 -1.</_>
        <_>
          7 12 4 12 2.</_></rects>
      <tilted>0</tilted></_>
    <_>
      <rects>
        <_>
          7 4 6 6 -1.</_>
        <_>
          7 4 3 3 2.</_>
        <_>
          10 7 3 3 2.</_></rects>
      <tilted>0</tilted></_>
    <_>
      <rects>
        <_>
          7 4 14 4 -1.</_>
        <_>
          7 6 14 2 2.</_></rects>
      <tilted>0</tilted></_>
    <_>
      <rects>
        <_>
          7 7 2 7 -1.</_>
        <_>
          8 7 1 7 2.</_></rects>
      <tilted>0</tilted></_>
    <_>
      <rects>
        <_>
          7 7 4 8 -1.</_>
        <_>
          7 7 2 4 2.</_>
        <_>
          9 11 2 4 2.</_></rects>
      <tilted>0</tilted></_>
    <_>
      <rects>
        <_>
          7 9 1 4 -1.</_>
        <_>
          7 11 1 2 2.</_></rects>
      <tilted>0</tilted></_>
    <_>
      <rects>
        <_>
          7 12 10 10 -1.</_>
        <_>
          7 12 5 5 2.</_>
        <_>
          12 17 5 5 2.</_></rects>
      <tilted>0</tilted></_>
    <_>
      <rects>
        <_>
          7 14 13 9 -1.</_>
        <_>
          7 17 13 3 3.</_></rects>
      <tilted>0</tilted></_>
    <_>
      <rects>
        <_>
          7 16 17 2 -1.</_>
        <_>
          7 17 17 1 2.</_></rects>
      <tilted>0</tilted></_>
    <_>
      <rects>
        <_>
          7 17 12 6 -1.</_>
        <_>
          7 19 12 2 3.</_></rects>
      <tilted>0</tilted></_>
    <_>
      <rects>
        <_>
          7 22 3 2 -1.</_>
        <_>
          8 22 1 2 3.</_></rects>
      <tilted>0</tilted></_>
    <_>
      <rects>
        <_>
          8 0 6 6 -1.</_>
        <_>
          8 2 6 2 3.</_></rects>
      <tilted>0</tilted></_>
    <_>
      <rects>
        <_>
          8 0 11 8 -1.</_>
        <_>
          8 4 11 4 2.</_></rects>
      <tilted>0</tilted></_>
    <_>
      <rects>
        <_>
          8 1 2 7 -1.</_>
        <_>
          9 1 1 7 2.</_></rects>
      <tilted>0</tilted></_>
    <_>
      <rects>
        <_>
          8 2 2 4 -1.</_>
        <_>
          9 2 1 4 2.</_></rects>
      <tilted>0</tilted></_>
    <_>
      <rects>
        <_>
          8 3 8 6 -1.</_>
        <_>
          8 3 4 3 2.</_>
        <_>
          12 6 4 3 2.</_></rects>
      <tilted>0</tilted></_>
    <_>
      <rects>
        <_>
          8 4 14 8 -1.</_>
        <_>
          8 4 7 4 2.</_>
        <_>
          15 8 7 4 2.</_></rects>
      <tilted>0</tilted></_>
    <_>
      <rects>
        <_>
          8 4 16 3 -1.</_>
        <_>
          8 5 16 1 3.</_></rects>
      <tilted>0</tilted></_>
    <_>
      <rects>
        <_>
          8 6 10 6 -1.</_>
        <_>
          8 8 10 2 3.</_></rects>
      <tilted>0</tilted></_>
    <_>
      <rects>
        <_>
          8 7 16 14 -1.</_>
        <_>
          16 7 8 14 2.</_></rects>
      <tilted>0</tilted></_>
    <_>
      <rects>
        <_>
          8 12 16 1 -1.</_>
        <_>
          16 12 8 1 2.</_></rects>
      <tilted>0</tilted></_>
    <_>
      <rects>
        <_>
          9 0 1 2 -1.</_>
        <_>
          9 1 1 1 2.</_></rects>
      <tilted>0</tilted></_>
    <_>
      <rects>
        <_>
          9 2 11 3 -1.</_>
        <_>
          9 3 11 1 3.</_></rects>
      <tilted>0</tilted></_>
    <_>
      <rects>
        <_>
          9 4 10 8 -1.</_>
        <_>
          9 4 5 4 2.</_>
        <_>
          14 8 5 4 2.</_></rects>
      <tilted>0</tilted></_>
    <_>
      <rects>
        <_>
          9 5 2 14 -1.</_>
        <_>
          9 5 1 7 2.</_>
        <_>
          10 12 1 7 2.</_></rects>
      <tilted>0</tilted></_>
    <_>
      <rects>
        <_>
          9 5 4 18 -1.</_>
        <_>
          9 5 2 9 2.</_>
        <_>
          11 14 2 9 2.</_></rects>
      <tilted>0</tilted></_>
    <_>
      <rects>
        <_>
          9 5 12 19 -1.</_>
        <_>
          13 5 4 19 3.</_></rects>
      <tilted>0</tilted></_>
    <_>
      <rects>
        <_>
          9 7 14 6 -1.</_>
        <_>
          9 7 7 3 2.</_>
        <_>
          16 10 7 3 2.</_></rects>
      <tilted>0</tilted></_>
    <_>
      <rects>
        <_>
          9 7 11 6 -1.</_>
        <_>
          9 9 11 2 3.</_></rects>
      <tilted>0</tilted></_>
    <_>
      <rects>
        <_>
          9 12 13 4 -1.</_>
        <_>
          9 14 13 2 2.</_></rects>
      <tilted>0</tilted></_>
    <_>
      <rects>
        <_>
          9 13 3 1 -1.</_>
        <_>
          10 13 1 1 3.</_></rects>
      <tilted>0</tilted></_>
    <_>
      <rects>
        <_>
          9 13 6 8 -1.</_>
        <_>
          9 13 3 4 2.</_>
        <_>
          12 17 3 4 2.</_></rects>
      <tilted>0</tilted></_>
    <_>
      <rects>
        <_>
          9 15 10 8 -1.</_>
        <_>
          9 19 10 4 2.</_></rects>
      <tilted>0</tilted></_>
    <_>
      <rects>
        <_>
          9 18 6 1 -1.</_>
        <_>
          11 18 2 1 3.</_></rects>
      <tilted>0</tilted></_>
    <_>
      <rects>
        <_>
          9 18 12 2 -1.</_>
        <_>
          9 19 12 1 2.</_></rects>
      <tilted>0</tilted></_>
    <_>
      <rects>
        <_>
          10 0 12 1 -1.</_>
        <_>
          16 0 6 1 2.</_></rects>
      <tilted>0</tilted></_>
    <_>
      <rects>
        <_>
          10 0 14 24 -1.</_>
        <_>
          17 0 7 24 2.</_></rects>
      <tilted>0</tilted></_>
    <_>
      <rects>
        <_>
          10 1 4 23 -1.</_>
        <_>
          12 1 2 23 2.</_></rects>
      <tilted>0</tilted></_>
    <_>
      <rects>
        <_>
          10 4 12 20 -1.</_>
        <_>
          16 4 6 20 2.</_></rects>
      <tilted>0</tilted></_>
    <_>
      <rects>
        <_>
          10 7 10 4 -1.</_>
        <_>
          10 7 5 2 2.</_>
        <_>
          15 9 5 2 2.</_></rects>
      <tilted>0</tilted></_>
    <_>
      <rects>
        <_>
          10 8 14 6 -1.</_>
        <_>
          10 11 14 3 2.</_></rects>
      <tilted>0</tilted></_>
    <_>
      <rects>
        <_>
          10 9 10 8 -1.</_>
        <_>
          10 9 5 4 2.</_>
        <_>
          15 13 5 4 2.</_></rects>
      <tilted>0</tilted></_>
    <_>
      <rects>
        <_>
          10 10 8 12 -1.</_>
        <_>
          10 10 4 6 2.</_>
        <_>
          14 16 4 6 2.</_></rects>
      <tilted>0</tilted></_>
    <_>
      <rects>
        <_>
          10 10 4 14 -1.</_>
        <_>
          10 17 4 7 2.</_></rects>
      <tilted>0</tilted></_>
    <_>
      <rects>
        <_>
          10 12 8 12 -1.</_>
        <_>
          14 12 4 12 2.</_></rects>
      <tilted>0</tilted></_>
    <_>
      <rects>
        <_>
          10 15 6 9 -1.</_>
        <_>
          10 18 6 3 3.</_></rects>
      <tilted>0</tilted></_>
    <_>
      <rects>
        <_>
          10 16 4 4 -1.</_>
        <_>
          10 16 2 2 2.</_>
        <_>
          12 18 2 2 2.</_></rects>
      <tilted>0</tilted></_>
    <_>
      <rects>
        <_>
          11 0 12 1 -1.</_>
        <_>
          17 0 6 1 2.</_></rects>
      <tilted>0</tilted></_>
    <_>
      <rects>
        <_>
          11 0 10 18 -1.</_>
        <_>
          11 6 10 6 3.</_></rects>
      <tilted>0</tilted></_>
    <_>
      <rects>
        <_>
          11 3 2 20 -1.</_>
        <_>
          12 3 1 20 2.</_></rects>
      <tilted>0</tilted></_>
    <_>
      <rects>
        <_>
          11 4 12 6 -1.</_>
        <_>
          11 4 6 3 2.</_>
        <_>
          17 7 6 3 2.</_></rects>
      <tilted>0</tilted></_>
    <_>
      <rects>
        <_>
          11 7 4 6 -1.</_>
        <_>
          11 9 4 2 3.</_></rects>
      <tilted>0</tilted></_>
    <_>
      <rects>
        <_>
          11 12 10 12 -1.</_>
        <_>
          11 18 10 6 2.</_></rects>
      <tilted>0</tilted></_>
    <_>
      <rects>
        <_>
          11 12 11 12 -1.</_>
        <_>
          11 18 11 6 2.</_></rects>
      <tilted>0</tilted></_>
    <_>
      <rects>
        <_>
          11 13 4 8 -1.</_>
        <_>
          11 13 2 4 2.</_>
        <_>
          13 17 2 4 2.</_></rects>
      <tilted>0</tilted></_>
    <_>
      <rects>
        <_>
          11 14 3 10 -1.</_>
        <_>
          12 14 1 10 3.</_></rects>
      <tilted>0</tilted></_>
    <_>
      <rects>
        <_>
          11 14 4 4 -1.</_>
        <_>
          11 14 2 2 2.</_>
        <_>
          13 16 2 2 2.</_></rects>
      <tilted>0</tilted></_>
    <_>
      <rects>
        <_>
          12 0 10 5 -1.</_>
        <_>
          17 0 5 5 2.</_></rects>
      <tilted>0</tilted></_>
    <_>
      <rects>
        <_>
          12 0 10 24 -1.</_>
        <_>
          17 0 5 24 2.</_></rects>
      <tilted>0</tilted></_>
    <_>
      <rects>
        <_>
          12 2 2 15 -1.</_>
        <_>
          12 7 2 5 3.</_></rects>
      <tilted>0</tilted></_>
    <_>
      <rects>
        <_>
          12 4 1 9 -1.</_>
        <_>
          12 7 1 3 3.</_></rects>
      <tilted>0</tilted></_>
    <_>
      <rects>
        <_>
          12 4 4 8 -1.</_>
        <_>
          12 4 2 4 2.</_>
        <_>
          14 8 2 4 2.</_></rects>
      <tilted>0</tilted></_>
    <_>
      <rects>
        <_>
          12 4 3 20 -1.</_>
        <_>
          12 14 3 10 2.</_></rects>
      <tilted>0</tilted></_>
    <_>
      <rects>
        <_>
          12 4 9 12 -1.</_>
        <_>
          12 8 9 4 3.</_></rects>
      <tilted>0</tilted></_>
    <_>
      <rects>
        <_>
          12 5 4 18 -1.</_>
        <_>
          12 5 2 9 2.</_>
        <_>
          14 14 2 9 2.</_></rects>
      <tilted>0</tilted></_>
    <_>
      <rects>
        <_>
          12 5 6 6 -1.</_>
        <_>
          12 5 3 3 2.</_>
        <_>
          15 8 3 3 2.</_></rects>
      <tilted>0</tilted></_>
    <_>
      <rects>
        <_>
          12 5 8 16 -1.</_>
        <_>
          12 5 4 8 2.</_>
        <_>
          16 13 4 8 2.</_></rects>
      <tilted>0</tilted></_>
    <_>
      <rects>
        <_>
          12 5 12 16 -1.</_>
        <_>
          12 13 12 8 2.</_></rects>
      <tilted>0</tilted></_>
    <_>
      <rects>
        <_>
          12 7 1 14 -1.</_>
        <_>
          12 14 1 7 2.</_></rects>
      <tilted>0</tilted></_>
    <_>
      <rects>
        <_>
          12 9 8 11 -1.</_>
        <_>
          16 9 4 11 2.</_></rects>
      <tilted>0</tilted></_>
    <_>
      <rects>
        <_>
          12 11 6 8 -1.</_>
        <_>
          12 11 3 4 2.</_>
        <_>
          15 15 3 4 2.</_></rects>
      <tilted>0</tilted></_>
    <_>
      <rects>
        <_>
          12 12 8 4 -1.</_>
        <_>
          12 14 8 2 2.</_></rects>
      <tilted>0</tilted></_>
    <_>
      <rects>
        <_>
          12 15 3 2 -1.</_>
        <_>
          13 15 1 2 3.</_></rects>
      <tilted>0</tilted></_>
    <_>
      <rects>
        <_>
          13 0 4 17 -1.</_>
        <_>
          15 0 2 17 2.</_></rects>
      <tilted>0</tilted></_>
    <_>
      <rects>
        <_>
          13 0 7 2 -1.</_>
        <_>
          13 1 7 1 2.</_></rects>
      <tilted>0</tilted></_>
    <_>
      <rects>
        <_>
          13 1 6 13 -1.</_>
        <_>
          15 1 2 13 3.</_></rects>
      <tilted>0</tilted></_>
    <_>
      <rects>
        <_>
          13 2 6 9 -1.</_>
        <_>
          13 5 6 3 3.</_></rects>
      <tilted>0</tilted></_>
    <_>
      <rects>
        <_>
          13 3 4 17 -1.</_>
        <_>
          15 3 2 17 2.</_></rects>
      <tilted>0</tilted></_>
    <_>
      <rects>
        <_>
          13 5 6 4 -1.</_>
        <_>
          13 5 3 2 2.</_>
        <_>
          16 7 3 2 2.</_></rects>
      <tilted>0</tilted></_>
    <_>
      <rects>
        <_>
          13 6 4 4 -1.</_>
        <_>
          13 6 2 2 2.</_>
        <_>
          15 8 2 2 2.</_></rects>
      <tilted>0</tilted></_>
    <_>
      <rects>
        <_>
          13 6 8 18 -1.</_>
        <_>
          17 6 4 18 2.</_></rects>
      <tilted>0</tilted></_>
    <_>
      <rects>
        <_>
          13 7 4 6 -1.</_>
        <_>
          13 7 2 3 2.</_>
        <_>
          15 10 2 3 2.</_></rects>
      <tilted>0</tilted></_>
    <_>
      <rects>
        <_>
          13 8 4 13 -1.</_>
        <_>
          15 8 2 13 2.</_></rects>
      <tilted>0</tilted></_>
    <_>
      <rects>
        <_>
          13 9 2 15 -1.</_>
        <_>
          14 9 1 15 2.</_></rects>
      <tilted>0</tilted></_>
    <_>
      <rects>
        <_>
          13 15 6 9 -1.</_>
        <_>
          13 18 6 3 3.</_></rects>
      <tilted>0</tilted></_>
    <_>
      <rects>
        <_>
          13 16 3 3 -1.</_>
        <_>
          14 16 1 3 3.</_></rects>
      <tilted>0</tilted></_>
    <_>
      <rects>
        <_>
          14 0 2 10 -1.</_>
        <_>
          14 0 1 5 2.</_>
        <_>
          15 5 1 5 2.</_></rects>
      <tilted>0</tilted></_>
    <_>
      <rects>
        <_>
          14 0 10 8 -1.</_>
        <_>
          19 0 5 8 2.</_></rects>
      <tilted>0</tilted></_>
    <_>
      <rects>
        <_>
          14 0 10 21 -1.</_>
        <_>
          14 7 10 7 3.</_></rects>
      <tilted>0</tilted></_>
    <_>
      <rects>
        <_>
          14 1 5 4 -1.</_>
        <_>
          14 3 5 2 2.</_></rects>
      <tilted>0</tilted></_>
    <_>
      <rects>
        <_>
          14 5 6 4 -1.</_>
        <_>
          14 5 3 2 2.</_>
        <_>
          17 7 3 2 2.</_></rects>
      <tilted>0</tilted></_>
    <_>
      <rects>
        <_>
          14 10 9 4 -1.</_>
        <_>
          17 10 3 4 3.</_></rects>
      <tilted>0</tilted></_>
    <_>
      <rects>
        <_>
          14 11 4 8 -1.</_>
        <_>
          16 11 2 8 2.</_></rects>
      <tilted>0</tilted></_>
    <_>
      <rects>
        <_>
          14 11 10 13 -1.</_>
        <_>
          19 11 5 13 2.</_></rects>
      <tilted>0</tilted></_>
    <_>
      <rects>
        <_>
          14 15 4 8 -1.</_>
        <_>
          14 19 4 4 2.</_></rects>
      <tilted>0</tilted></_>
    <_>
      <rects>
        <_>
          15 0 2 7 -1.</_>
        <_>
          16 0 1 7 2.</_></rects>
      <tilted>0</tilted></_>
    <_>
      <rects>
        <_>
          15 10 2 10 -1.</_>
        <_>
          15 10 1 5 2.</_>
        <_>
          16 15 1 5 2.</_></rects>
      <tilted>0</tilted></_>
    <_>
      <rects>
        <_>
          15 10 4 14 -1.</_>
        <_>
          15 10 2 7 2.</_>
        <_>
          17 17 2 7 2.</_></rects>
      <tilted>0</tilted></_>
    <_>
      <rects>
        <_>
          15 11 3 12 -1.</_>
        <_>
          16 11 1 12 3.</_></rects>
      <tilted>0</tilted></_>
    <_>
      <rects>
        <_>
          15 13 2 6 -1.</_>
        <_>
          15 13 1 3 2.</_>
        <_>
          16 16 1 3 2.</_></rects>
      <tilted>0</tilted></_>
    <_>
      <rects>
        <_>
          15 13 2 10 -1.</_>
        <_>
          15 13 1 5 2.</_>
        <_>
          16 18 1 5 2.</_></rects>
      <tilted>0</tilted></_>
    <_>
      <rects>
        <_>
          15 20 8 4 -1.</_>
        <_>
          19 20 4 4 2.</_></rects>
      <tilted>0</tilted></_>
    <_>
      <rects>
        <_>
          16 0 6 3 -1.</_>
        <_>
          18 0 2 3 3.</_></rects>
      <tilted>0</tilted></_>
    <_>
      <rects>
        <_>
          16 0 8 1 -1.</_>
        <_>
          20 0 4 1 2.</_></rects>
      <tilted>0</tilted></_>
    <_>
      <rects>
        <_>
          16 0 8 18 -1.</_>
        <_>
          16 0 4 9 2.</_>
        <_>
          20 9 4 9 2.</_></rects>
      <tilted>0</tilted></_>
    <_>
      <rects>
        <_>
          16 5 2 6 -1.</_>
        <_>
          16 5 1 3 2.</_>
        <_>
          17 8 1 3 2.</_></rects>
      <tilted>0</tilted></_>
    <_>
      <rects>
        <_>
          16 7 8 14 -1.</_>
        <_>
          20 7 4 14 2.</_></rects>
      <tilted>0</tilted></_>
    <_>
      <rects>
        <_>
          16 8 1 12 -1.</_>
        <_>
          16 14 1 6 2.</_></rects>
      <tilted>0</tilted></_>
    <_>
      <rects>
        <_>
          16 14 2 10 -1.</_>
        <_>
          16 19 2 5 2.</_></rects>
      <tilted>0</tilted></_>
    <_>
      <rects>
        <_>
          17 0 2 21 -1.</_>
        <_>
          18 0 1 21 2.</_></rects>
      <tilted>0</tilted></_>
    <_>
      <rects>
        <_>
          17 3 4 4 -1.</_>
        <_>
          17 3 2 2 2.</_>
        <_>
          19 5 2 2 2.</_></rects>
      <tilted>0</tilted></_>
    <_>
      <rects>
        <_>
          17 4 4 14 -1.</_>
        <_>
          17 4 2 7 2.</_>
        <_>
          19 11 2 7 2.</_></rects>
      <tilted>0</tilted></_>
    <_>
      <rects>
        <_>
          17 5 4 5 -1.</_>
        <_>
          19 5 2 5 2.</_></rects>
      <tilted>0</tilted></_>
    <_>
      <rects>
        <_>
          17 7 3 2 -1.</_>
        <_>
          17 8 3 1 2.</_></rects>
      <tilted>0</tilted></_>
    <_>
      <rects>
        <_>
          17 8 4 15 -1.</_>
        <_>
          19 8 2 15 2.</_></rects>
      <tilted>0</tilted></_>
    <_>
      <rects>
        <_>
          17 19 6 4 -1.</_>
        <_>
          19 19 2 4 3.</_></rects>
      <tilted>0</tilted></_>
    <_>
      <rects>
        <_>
          18 0 6 2 -1.</_>
        <_>
          20 0 2 2 3.</_></rects>
      <tilted>0</tilted></_>
    <_>
      <rects>
        <_>
          18 3 1 6 -1.</_>
        <_>
          18 5 1 2 3.</_></rects>
      <tilted>0</tilted></_>
    <_>
      <rects>
        <_>
          18 6 4 12 -1.</_>
        <_>
          18 6 2 6 2.</_>
        <_>
          20 12 2 6 2.</_></rects>
      <tilted>0</tilted></_>
    <_>
      <rects>
        <_>
          18 6 4 12 -1.</_>
        <_>
          20 6 2 12 2.</_></rects>
      <tilted>0</tilted></_>
    <_>
      <rects>
        <_>
          18 9 6 10 -1.</_>
        <_>
          21 9 3 10 2.</_></rects>
      <tilted>0</tilted></_>
    <_>
      <rects>
        <_>
          18 9 6 12 -1.</_>
        <_>
          21 9 3 12 2.</_></rects>
      <tilted>0</tilted></_>
    <_>
      <rects>
        <_>
          18 11 5 6 -1.</_>
        <_>
          18 13 5 2 3.</_></rects>
      <tilted>0</tilted></_>
    <_>
      <rects>
        <_>
          18 20 6 3 -1.</_>
        <_>
          18 21 6 1 3.</_></rects>
      <tilted>0</tilted></_>
    <_>
      <rects>
        <_>
          19 4 1 12 -1.</_>
        <_>
          19 8 1 4 3.</_></rects>
      <tilted>0</tilted></_>
    <_>
      <rects>
        <_>
          20 0 4 24 -1.</_>
        <_>
          22 0 2 24 2.</_></rects>
      <tilted>0</tilted></_>
    <_>
      <rects>
        <_>
          20 4 4 20 -1.</_>
        <_>
          22 4 2 20 2.</_></rects>
      <tilted>0</tilted></_>
    <_>
      <rects>
        <_>
          20 5 4 19 -1.</_>
        <_>
          22 5 2 19 2.</_></rects>
      <tilted>0</tilted></_>
    <_>
      <rects>
        <_>
          21 5 3 6 -1.</_>
        <_>
          21 7 3 2 3.</_></rects>
      <tilted>0</tilted></_>
    <_>
      <rects>
        <_>
          21 10 2 4 -1.</_>
        <_>
          21 10 1 2 2.</_>
        <_>
          22 12 1 2 2.</_></rects>
      <tilted>0</tilted></_>
    <_>
      <rects>
        <_>
          21 18 3 6 -1.</_>
        <_>
          22 18 1 6 3.</_></rects>
      <tilted>0</tilted></_>
    <_>
      <rects>
        <_>
          22 4 2 2 -1.</_>
        <_>
          22 5 2 1 2.</_></rects>
      <tilted>0</tilted></_>
    <_>
      <rects>
        <_>
          22 5 1 2 -1.</_>
        <_>
          22 6 1 1 2.</_></rects>
      <tilted>0</tilted></_>
    <_>
      <rects>
        <_>
          22 8 2 2 -1.</_>
        <_>
          23 8 1 2 2.</_></rects>
      <tilted>0</tilted></_>
    <_>
      <rects>
        <_>
          22 8 2 3 -1.</_>
        <_>
          23 8 1 3 2.</_></rects>
      <tilted>0</tilted></_>
    <_>
      <rects>
        <_>
          22 11 2 2 -1.</_>
        <_>
          22 11 1 1 2.</_>
        <_>
          23 12 1 1 2.</_></rects>
      <tilted>0</tilted></_>
    <_>
      <rects>
        <_>
          22 11 2 12 -1.</_>
        <_>
          23 11 1 12 2.</_></rects>
      <tilted>0</tilted></_>
    <_>
      <rects>
        <_>
          23 0 1 24 -1.</_>
        <_>
          23 12 1 12 2.</_></rects>
      <tilted>0</tilted></_>
    <_>
      <rects>
        <_>
          23 4 1 9 -1.</_>
        <_>
          23 7 1 3 3.</_></rects>
      <tilted>0</tilted></_>
    <_>
      <rects>
        <_>
          23 6 1 8 -1.</_>
        <_>
          23 10 1 4 2.</_></rects>
      <tilted>0</tilted></_>
    <_>
      <rects>
        <_>
          23 15 1 9 -1.</_>
        <_>
          23 18 1 3 3.</_></rects>
      <tilted>0</tilted></_></features></cascade>
</opencv_storage>
